60089 132
0.000000 0.000000 0.000000 0.000000 0.021438 0.000000 0.000000 0.000000 0.000000 0.000000 0.000000 0.000000 0.168348 0.000000 0.074627 0.052239 0.000000 0.000000 0.000000 0.000000 0.000000 0.104372 0.000000 0.000000 0.000000 0.000000 0.087011 0.000000 0.000000 0.000000 0.000000 0.023960 0.000000 0.000000 0.017654 0.000000 0.029851 0.104478 0.052239 0.052239 0.007463 0.000000 0.000000 0.262341 0.000000 0.000000 0.000000 0.000000 0.155738 0.000000 0.000000 0.000000 0.000000 0.000000 0.000000 0.000000 0.026482 0.067164 0.044776 0.014925 0.000000 0.000000 0.000000 0.000000 0.000000 0.121298 0.000000 0.000000 0.000000 0.000000 0.153216 0.000000 0.000000 0.000000 0.000000 0.000000 0.032787 0.000000 0.000000 0.000000 0.000000 0.000000 0.000000 0.074627 0.037313 0.007463 0.000000 0.133992 0.000000 0.000000 0.000000 0.000000 0.088903 0.000000 0.000000 0.000000 0.000000 0.000000 0.003783 0.040984 0.000000 0.044776 0.000000 0.000000 0.000000 0.000000 0.007463 0.104478 0.067164 0.229901 0.000000 0.000000 0.000000 0.000000 0.035309 0.000000 0.000000 0.000000 0.000000 0.000000 0.144388 0.000000 0.000000 0.000000 0.000000 0.000000 0.000000 0.014925 0.082090 0.059701 0.000000 0.148096 0
0.000000 0.000000 0.000000 0.000000 0.000000 0.000000 0.000000 0.000000 0.000000 0.000000 0.000000 0.000000 0.216763 0.000000 0.000000 0.000000 0.000000 0.000000 0.000000 0.000000 0.000000 0.000000 0.000000 0.000000 0.000000 0.000000 0.000000 0.000000 0.000000 0.000000 0.000000 0.001927 0.028902 0.000000 0.093449 0.062500 0.083333 0.031250 0.010417 0.093750 0.052083 0.000000 0.000000 0.307692 0.000000 0.000000 0.000000 0.000000 0.000000 0.000000 0.000000 0.000000 0.000000 0.000000 0.000000 0.000000 0.168593 0.041667 0.072917 0.010417 0.000000 0.010417 0.010417 0.000000 0.000000 0.160256 0.000000 0.000000 0.000000 0.000000 0.000000 0.000000 0.000000 0.000000 0.000000 0.000000 0.154143 0.000000 0.001927 0.020833 0.020833 0.000000 0.000000 0.041667 0.093750 0.010417 0.000000 0.201923 0.000000 0.000000 0.000000 0.000000 0.000000 0.000000 0.000000 0.000000 0.000000 0.000000 0.079961 0.000963 0.036609 0.072917 0.072917 0.000000 0.000000 0.052083 0.093750 0.031250 0.010417 0.330128 0.000000 0.000000 0.000000 0.000000 0.000000 0.000000 0.000000 0.000000 0.000000 0.000000 0.216763 0.000000 0.000000 0.000000 0.000000 0.000000 0.000000 0.000000 0.000000 0.000000 0.000000 0.000000 1
0.000000 0.000000 0.000000 0.000000 0.000000 0.000000 0.000000 0.000000 0.000000 0.000000 0.000000 0.000000 0.208680 0.000000 0.036496 0.007299 0.000000 0.000000 0.000000 0.000000 0.000000 0.027375 0.000000 0.000000 0.000000 0.000000 0.045184 0.000000 0.005945 0.000000 0.000000 0.000000 0.013674 0.000000 0.054697 0.000000 0.072993 0.102190 0.014599 0.065693 0.036496 0.007299 0.000000 0.294686 0.000000 0.000000 0.000000 0.000000 0.073127 0.000000 0.000000 0.000000 0.000000 0.000000 0.000000 0.000000 0.077883 0.036496 0.080292 0.029197 0.000000 0.000000 0.000000 0.000000 0.000000 0.183575 0.000000 0.000000 0.000000 0.000000 0.148038 0.000000 0.000595 0.000000 0.000000 0.000000 0.037455 0.000000 0.000000 0.000000 0.000000 0.000000 0.007299 0.065693 0.043796 0.000000 0.000000 0.114332 0.000000 0.000000 0.000000 0.000000 0.109988 0.000000 0.000000 0.000000 0.000000 0.000000 0.013674 0.011891 0.001784 0.080292 0.014599 0.000000 0.000000 0.000000 0.021898 0.109489 0.029197 0.257649 0.000000 0.000000 0.000000 0.000000 0.033294 0.000000 0.000000 0.000000 0.000000 0.000000 0.164090 0.000000 0.000000 0.000000 0.000000 0.000000 0.000000 0.021898 0.072993 0.043796 0.000000 0.122383 0
0.000000 0.000000 0.000000 0.000000 0.000000 0.000000 0.000000 0.000000 0.000000 0.000000 0.000000 0.000000 0.224057 0.010471 0.026178 0.010471 0.000000 0.000000 0.000000 0.000000 0.000000 0.042735 0.000000 0.000000 0.006289 0.000000 0.034591 0.000000 0.013365 0.000000 0.000000 0.025157 0.000000 0.000000 0.024371 0.031414 0.052356 0.057592 0.005236 0.068063 0.062827 0.026178 0.005236 0.260684 0.000000 0.000000 0.013365 0.000000 0.000000 0.000000 0.000000 0.000000 0.031447 0.000000 0.000000 0.000000 0.141509 0.020942 0.031414 0.031414 0.000000 0.010471 0.020942 0.015707 0.005236 0.111111 0.000000 0.000000 0.027516 0.000000 0.011792 0.000000 0.082547 0.000000 0.009434 0.023585 0.000000 0.000000 0.000000 0.020942 0.036649 0.010471 0.020942 0.026178 0.031414 0.000000 0.000000 0.168091 0.000000 0.000000 0.000000 0.000000 0.026730 0.000000 0.000000 0.000786 0.000000 0.000000 0.047956 0.003145 0.045597 0.026178 0.052356 0.005236 0.000000 0.000000 0.047120 0.047120 0.010471 0.283476 0.000000 0.000000 0.000000 0.000000 0.000000 0.000000 0.014937 0.051101 0.000000 0.007862 0.132862 0.000000 0.000000 0.005236 0.000000 0.015707 0.026178 0.015707 0.036649 0.036649 0.036649 0.133903 2
0.000000 0.000000 0.015831 0.000000 0.000000 0.000000 0.000000 0.000000 0.052770 0.000000 0.000000 0.000000 0.113456 0.012658 0.021097 0.042194 0.000000 0.000000 0.012658 0.046414 0.000000 0.138756 0.000000 0.000000 0.042216 0.000000 0.005277 0.000000 0.008795 0.000000 0.030783 0.043975 0.000000 0.000000 0.000880 0.004219 0.025316 0.059072 0.016878 0.025316 0.029536 0.033755 0.016878 0.229665 0.000000 0.000000 0.011434 0.000000 0.000000 0.000000 0.000000 0.000000 0.119613 0.000000 0.000000 0.000000 0.073879 0.012658 0.016878 0.037975 0.000000 0.000000 0.008439 0.042194 0.000000 0.097289 0.000000 0.000000 0.023747 0.000000 0.000000 0.000000 0.040457 0.000000 0.058927 0.019349 0.000880 0.000000 0.000000 0.008439 0.012658 0.037975 0.025316 0.016878 0.025316 0.037975 0.025316 0.208931 0.038698 0.000000 0.000000 0.000000 0.000000 0.000000 0.000000 0.000000 0.079156 0.000000 0.004398 0.005277 0.043096 0.004219 0.025316 0.059072 0.004219 0.012658 0.004219 0.071730 0.008439 0.159490 0.007036 0.000000 0.000000 0.000000 0.000000 0.000000 0.000000 0.000000 0.058927 0.000000 0.101143 0.000000 0.000000 0.000000 0.037975 0.025316 0.000000 0.008439 0.042194 0.042194 0.000000 0.165869 3
0.000000 0.016736 0.000000 0.000000 0.000000 0.000000 0.000000 0.000000 0.000000 0.000000 0.000000 0.000000 0.166527 0.005181 0.046632 0.025907 0.000000 0.010363 0.031088 0.005181 0.000000 0.110184 0.000000 0.014226 0.000000 0.000000 0.000000 0.058577 0.036820 0.000000 0.000000 0.000000 0.010042 0.000000 0.050209 0.025907 0.046632 0.036269 0.005181 0.020725 0.067358 0.000000 0.000000 0.161937 0.000000 0.012552 0.000000 0.000000 0.067782 0.000000 0.000000 0.000000 0.001674 0.000000 0.000000 0.005858 0.014226 0.041451 0.051813 0.036269 0.010363 0.015544 0.025907 0.025907 0.015544 0.272120 0.000000 0.027615 0.000000 0.000000 0.018410 0.001674 0.025105 0.000000 0.000000 0.000000 0.048536 0.000000 0.000000 0.010363 0.056995 0.025907 0.015544 0.036269 0.067358 0.056995 0.000000 0.258765 0.000000 0.000000 0.000000 0.000000 0.000000 0.000000 0.000000 0.000000 0.037657 0.000000 0.088703 0.030126 0.000000 0.025907 0.036269 0.000000 0.000000 0.020725 0.056995 0.015544 0.020725 0.195326 0.000000 0.000000 0.000000 0.000000 0.000000 0.000000 0.000000 0.000000 0.000000 0.000000 0.266946 0.000000 0.000000 0.000000 0.000000 0.000000 0.000000 0.000000 0.000000 0.005181 0.000000 0.001669 4
0.000000 0.000000 0.000000 0.000000 0.000000 0.000000 0.000000 0.000000 0.000000 0.014111 0.000000 0.000000 0.179354 0.000000 0.000000 0.000000 0.000000 0.000000 0.000000 0.000000 0.000000 0.033829 0.000000 0.000000 0.000000 0.000743 0.000000 0.001114 0.008912 0.001857 0.000000 0.000000 0.063869 0.000000 0.051615 0.035714 0.083333 0.357143 0.011905 0.059524 0.095238 0.309524 0.047619 0.271989 0.000000 0.000000 0.017824 0.000371 0.000000 0.000000 0.013368 0.000000 0.000000 0.033049 0.000000 0.000000 0.046788 0.000000 0.000000 0.000000 0.000000 0.000000 0.000000 0.000000 0.000000 0.332882 0.000000 0.000000 0.000000 0.000000 0.000000 0.000000 0.029707 0.000000 0.000000 0.000000 0.171556 0.000000 0.000000 0.000000 0.000000 0.000000 0.000000 0.000000 0.000000 0.000000 0.000000 0.005413 0.011883 0.000000 0.032306 0.000000 0.000000 0.000000 0.000000 0.000743 0.062384 0.000000 0.021537 0.025993 0.000000 0.000000 0.000000 0.000000 0.000000 0.000000 0.000000 0.000000 0.000000 0.280108 0.000000 0.000000 0.000000 0.000000 0.000000 0.000000 0.001114 0.000000 0.000000 0.000000 0.209803 0.000000 0.000000 0.000000 0.000000 0.000000 0.000000 0.000000 0.000000 0.000000 0.000000 0.075778 5
0.000000 0.000000 0.058245 0.000000 0.000000 0.006051 0.000000 0.001513 0.000000 0.000000 0.000000 0.000000 0.066566 0.012500 0.075000 0.050000 0.012500 0.000000 0.056250 0.043750 0.000000 0.262712 0.000000 0.000000 0.027231 0.000000 0.021180 0.018154 0.000000 0.000000 0.000000 0.015129 0.027988 0.000000 0.000000 0.012500 0.031250 0.093750 0.025000 0.025000 0.050000 0.050000 0.025000 0.326271 0.000000 0.000000 0.029501 0.000000 0.000000 0.000000 0.000000 0.009077 0.089259 0.000000 0.000000 0.077156 0.000000 0.018750 0.025000 0.006250 0.000000 0.000000 0.012500 0.018750 0.006250 0.059322 0.000000 0.000000 0.012103 0.000000 0.000000 0.000000 0.000000 0.000000 0.007564 0.000000 0.144478 0.000000 0.000000 0.018750 0.031250 0.018750 0.000000 0.012500 0.068750 0.006250 0.000000 0.173729 0.000000 0.000000 0.000000 0.000000 0.000000 0.000000 0.000000 0.000000 0.031770 0.000000 0.036309 0.098336 0.000000 0.025000 0.056250 0.000000 0.000000 0.018750 0.043750 0.031250 0.000000 0.167373 0.000000 0.000000 0.000000 0.000000 0.000000 0.000000 0.000000 0.000000 0.000000 0.000000 0.222390 0.000000 0.000000 0.000000 0.000000 0.000000 0.000000 0.006250 0.006250 0.006250 0.000000 0.010593 7
0.000000 0.000000 0.000000 0.000000 0.000000 0.000000 0.000000 0.000000 0.000000 0.000000 0.000000 0.000000 0.240167 0.005714 0.011429 0.022857 0.000000 0.000000 0.000000 0.000000 0.000000 0.020033 0.000000 0.000000 0.000000 0.000000 0.000000 0.000000 0.050209 0.000000 0.000000 0.087029 0.000000 0.000000 0.046862 0.005714 0.045714 0.034286 0.000000 0.017143 0.057143 0.022857 0.000000 0.131886 0.000000 0.029289 0.000000 0.000000 0.025105 0.000000 0.012552 0.000000 0.000000 0.000000 0.000000 0.000000 0.102092 0.011429 0.062857 0.011429 0.000000 0.017143 0.051429 0.022857 0.000000 0.161937 0.000000 0.046025 0.000000 0.000000 0.003347 0.000000 0.074477 0.000000 0.000000 0.044351 0.001674 0.000000 0.000000 0.000000 0.034286 0.068571 0.011429 0.017143 0.017143 0.000000 0.000000 0.160267 0.000000 0.010879 0.000000 0.000000 0.060251 0.000000 0.000000 0.000000 0.000000 0.000000 0.003347 0.010879 0.008368 0.040000 0.057143 0.045714 0.017143 0.011429 0.022857 0.097143 0.022857 0.312187 0.000000 0.000000 0.000000 0.000000 0.028452 0.000000 0.000000 0.000000 0.000000 0.000000 0.114644 0.000000 0.000000 0.000000 0.005714 0.005714 0.000000 0.005714 0.057143 0.062857 0.000000 0.213689 6
0.000000 0.026871 0.000000 0.000000 0.006718 0.000000 0.017274 0.000000 0.000960 0.000000 0.000000 0.000000 0.114203 0.017647 0.052941 0.041176 0.000000 0.005882 0.047059 0.017647 0.005882 0.168016 0.000000 0.037428 0.000000 0.015355 0.000000 0.000000 0.065259 0.000000 0.000000 0.037428 0.000000 0.000000 0.005758 0.005882 0.029412 0.070588 0.011765 0.029412 0.041176 0.029412 0.011765 0.178138 0.000000 0.021113 0.000000 0.000000 0.009597 0.000000 0.000000 0.000000 0.079655 0.000000 0.000000 0.023992 0.000000 0.029412 0.041176 0.047059 0.017647 0.005882 0.000000 0.052941 0.029412 0.234818 0.000000 0.012476 0.000000 0.000000 0.000000 0.000000 0.000000 0.000000 0.000000 0.000000 0.135317 0.000000 0.000000 0.000000 0.023529 0.023529 0.000000 0.023529 0.070588 0.017647 0.000000 0.206478 0.000000 0.000000 0.000000 0.000000 0.000000 0.000000 0.000000 0.000000 0.027831 0.000000 0.082534 0.034549 0.000000 0.047059 0.035294 0.005882 0.000000 0.035294 0.052941 0.011765 0.011765 0.212551 0.000000 0.000000 0.000000 0.000000 0.000000 0.000000 0.000000 0.000000 0.000000 0.000000 0.245681 0.000000 0.000000 0.000000 0.000000 0.000000 0.000000 0.000000 0.000000 0.000000 0.000000 0.000000 9
0.000000 0.083799 0.000000 0.000000 0.005587 0.000000 0.022967 0.000000 0.002483 0.000000 0.000000 0.000000 0.032278 0.031111 0.022222 0.084444 0.022222 0.008889 0.022222 0.066667 0.008889 0.215962 0.000000 0.051521 0.000000 0.000000 0.000000 0.000621 0.034140 0.000000 0.000000 0.039727 0.027312 0.000000 0.000000 0.000000 0.035556 0.106667 0.017778 0.000000 0.035556 0.102222 0.000000 0.200313 0.000000 0.044693 0.000000 0.000000 0.000000 0.000000 0.000000 0.000000 0.067660 0.000000 0.016139 0.000000 0.009311 0.031111 0.031111 0.017778 0.026667 0.026667 0.017778 0.008889 0.031111 0.239437 0.000000 0.002483 0.000000 0.000000 0.000000 0.000000 0.000000 0.000000 0.000000 0.000000 0.205462 0.000000 0.000000 0.000000 0.013333 0.004444 0.000000 0.000000 0.031111 0.017778 0.000000 0.062598 0.000000 0.000000 0.000000 0.000000 0.008070 0.000000 0.000000 0.000000 0.021105 0.000000 0.084420 0.001241 0.006207 0.026667 0.035556 0.008889 0.000000 0.022222 0.040000 0.040000 0.004444 0.281690 0.000000 0.000000 0.000000 0.000000 0.000000 0.000000 0.000000 0.000000 0.000000 0.000000 0.232775 0.000000 0.000000 0.000000 0.000000 0.000000 0.000000 0.000000 0.000000 0.000000 0.000000 0.000000 8
0.000000 0.000000 0.000000 0.000000 0.000000 0.000000 0.000000 0.000000 0.000000 0.000000 0.000000 0.000000 0.199683 0.000000 0.000000 0.000000 0.000000 0.000000 0.000000 0.000000 0.000000 0.000000 0.000000 0.000000 0.000000 0.000000 0.000000 0.000000 0.000000 0.000000 0.000000 0.000000 0.038035 0.000000 0.095087 0.021053 0.115789 0.031579 0.000000 0.052632 0.094737 0.000000 0.000000 0.293706 0.000000 0.000000 0.000000 0.000000 0.000000 0.000000 0.000000 0.000000 0.000000 0.000000 0.000000 0.000000 0.164025 0.021053 0.084211 0.000000 0.000000 0.010526 0.010526 0.000000 0.000000 0.157343 0.000000 0.000000 0.000000 0.000000 0.000000 0.000000 0.000000 0.000000 0.000000 0.000000 0.154517 0.000000 0.003962 0.021053 0.021053 0.010526 0.000000 0.042105 0.084211 0.010526 0.000000 0.181818 0.000000 0.000000 0.000000 0.000000 0.000000 0.000000 0.000000 0.000000 0.000000 0.000000 0.084786 0.000792 0.045166 0.042105 0.105263 0.000000 0.000000 0.052632 0.094737 0.063158 0.010526 0.367133 0.000000 0.000000 0.000000 0.000000 0.000000 0.000000 0.000000 0.000000 0.000000 0.000000 0.213946 0.000000 0.000000 0.000000 0.000000 0.000000 0.000000 0.000000 0.000000 0.000000 0.000000 0.000000 1
0.000000 0.000000 0.000000 0.000000 0.000000 0.000000 0.000000 0.000000 0.000000 0.000000 0.000000 0.000000 0.226033 0.000000 0.026087 0.008696 0.000000 0.000000 0.000000 0.000000 0.000000 0.016364 0.000000 0.000000 0.000000 0.000000 0.044427 0.000000 0.000779 0.000000 0.000000 0.011691 0.000779 0.000000 0.056898 0.008696 0.069565 0.095652 0.043478 0.052174 0.017391 0.000000 0.000000 0.300000 0.000000 0.000000 0.000000 0.000000 0.050663 0.000000 0.000000 0.000000 0.000000 0.000000 0.000000 0.000000 0.110678 0.017391 0.095652 0.034783 0.000000 0.000000 0.000000 0.000000 0.000000 0.167273 0.000000 0.000000 0.000000 0.000000 0.155885 0.000000 0.000000 0.000000 0.000000 0.000000 0.035074 0.000000 0.000000 0.000000 0.000000 0.000000 0.000000 0.043478 0.069565 0.000000 0.000000 0.121818 0.000000 0.000000 0.000000 0.000000 0.084178 0.000000 0.000000 0.000000 0.000000 0.000000 0.013250 0.007015 0.010133 0.060870 0.034783 0.000000 0.000000 0.000000 0.026087 0.147826 0.017391 0.276364 0.000000 0.000000 0.000000 0.000000 0.018706 0.000000 0.000000 0.000000 0.000000 0.000000 0.173811 0.000000 0.000000 0.000000 0.000000 0.000000 0.000000 0.000000 0.078261 0.052174 0.000000 0.118182 0
0.000000 0.000000 0.008821 0.000000 0.000000 0.000000 0.000000 0.000000 0.000000 0.000000 0.000000 0.000000 0.179631 0.010471 0.036649 0.026178 0.000000 0.000000 0.020942 0.010471 0.000000 0.109215 0.000000 0.000000 0.060144 0.000000 0.042502 0.000000 0.005613 0.000000 0.000000 0.018444 0.000000 0.000000 0.013633 0.020942 0.031414 0.083770 0.015707 0.041885 0.041885 0.057592 0.010471 0.233788 0.000000 0.000000 0.018444 0.000000 0.000000 0.000000 0.000000 0.000000 0.090617 0.000000 0.000000 0.000000 0.104250 0.005236 0.020942 0.031414 0.000000 0.000000 0.010471 0.015707 0.005236 0.056314 0.000000 0.000000 0.026464 0.000000 0.004010 0.000000 0.031275 0.007217 0.036889 0.007217 0.013633 0.000000 0.000000 0.005236 0.047120 0.057592 0.015707 0.010471 0.047120 0.062827 0.005236 0.262799 0.000000 0.000000 0.000000 0.000000 0.000802 0.000000 0.000000 0.000000 0.001604 0.000000 0.052927 0.000000 0.039294 0.026178 0.041885 0.031414 0.000000 0.000000 0.041885 0.073298 0.000000 0.308874 0.000000 0.000000 0.000000 0.000000 0.000000 0.000000 0.000000 0.000000 0.000000 0.000000 0.236568 0.000000 0.000000 0.000000 0.000000 0.000000 0.000000 0.000000 0.020942 0.015707 0.000000 0.029010 2
0.000000 0.000000 0.000932 0.000000 0.000000 0.000000 0.000000 0.000000 0.010252 0.000000 0.000000 0.000000 0.198509 0.010870 0.016304 0.010870 0.000000 0.000000 0.005435 0.010870 0.005435 0.051625 0.000000 0.000000 0.008388 0.000000 0.003728 0.000000 0.001864 0.000000 0.012116 0.085741 0.000000 0.000000 0.008388 0.005435 0.027174 0.043478 0.027174 0.027174 0.016304 0.043478 0.005435 0.235182 0.000000 0.000000 0.000932 0.000000 0.000000 0.000000 0.000000 0.000000 0.045666 0.000000 0.000000 0.000000 0.153774 0.005435 0.016304 0.027174 0.000000 0.000000 0.005435 0.027174 0.005435 0.070746 0.000000 0.000000 0.005592 0.000000 0.000000 0.000000 0.014911 0.000000 0.055918 0.041007 0.000000 0.000000 0.000000 0.000000 0.010870 0.032609 0.038043 0.016304 0.010870 0.048913 0.032609 0.240918 0.019571 0.000000 0.000000 0.000000 0.000000 0.019571 0.000000 0.000000 0.044734 0.000000 0.007456 0.007456 0.080149 0.005435 0.027174 0.076087 0.010870 0.010870 0.005435 0.086957 0.016304 0.195029 0.009320 0.000000 0.000000 0.000000 0.000000 0.000000 0.000000 0.000000 0.075489 0.000000 0.088537 0.000000 0.000000 0.010870 0.032609 0.048913 0.000000 0.016304 0.048913 0.065217 0.005435 0.206501 3
0.000000 0.029446 0.000000 0.000000 0.000000 0.019630 0.000000 0.000000 0.000000 0.000000 0.000000 0.000000 0.127021 0.015464 0.061856 0.015464 0.005155 0.030928 0.046392 0.010309 0.000000 0.140065 0.001155 0.000000 0.000000 0.000000 0.000000 0.120092 0.000000 0.000000 0.000000 0.001155 0.031755 0.000000 0.010393 0.025773 0.051546 0.020619 0.005155 0.041237 0.041237 0.005155 0.005155 0.172638 0.000000 0.044457 0.000000 0.000000 0.000000 0.006928 0.000000 0.000000 0.035797 0.000000 0.000000 0.036952 0.002887 0.025773 0.030928 0.082474 0.010309 0.005155 0.015464 0.072165 0.030928 0.278502 0.000000 0.000000 0.000000 0.000000 0.000000 0.015589 0.001732 0.000000 0.000000 0.000000 0.131062 0.000000 0.000000 0.000000 0.036082 0.005155 0.005155 0.030928 0.051546 0.025773 0.000000 0.218241 0.000000 0.000000 0.000000 0.000000 0.000000 0.000000 0.000000 0.000000 0.031178 0.000000 0.047921 0.079099 0.000000 0.041237 0.041237 0.005155 0.000000 0.030928 0.051546 0.015464 0.005155 0.190554 0.000000 0.000000 0.000000 0.000000 0.000000 0.000000 0.000000 0.000000 0.000000 0.000000 0.225751 0.000000 0.000000 0.000000 0.000000 0.000000 0.000000 0.000000 0.000000 0.000000 0.000000 0.000000 4
0.000000 0.000000 0.000000 0.000874 0.000000 0.000000 0.019222 0.000000 0.000000 0.000000 0.010485 0.000000 0.133683 0.000000 0.052885 0.052885 0.000000 0.004808 0.043269 0.019231 0.004808 0.143133 0.000000 0.000000 0.000000 0.000000 0.000000 0.003058 0.000000 0.009174 0.000000 0.000437 0.114460 0.000000 0.016164 0.000000 0.024038 0.105769 0.014423 0.009615 0.019231 0.125000 0.004808 0.264990 0.000000 0.000000 0.000000 0.000000 0.000000 0.000000 0.054609 0.000000 0.025775 0.000000 0.019659 0.000000 0.034513 0.024038 0.009615 0.038462 0.038462 0.014423 0.019231 0.038462 0.038462 0.274662 0.000000 0.000000 0.000000 0.000000 0.000000 0.000000 0.000000 0.000000 0.000000 0.000000 0.203145 0.000000 0.000000 0.000000 0.000000 0.000000 0.000000 0.000000 0.000000 0.000000 0.000000 0.000000 0.016601 0.000000 0.000000 0.000000 0.000000 0.004369 0.000437 0.000000 0.046308 0.000000 0.048056 0.006990 0.015291 0.038462 0.033654 0.048077 0.024038 0.024038 0.043269 0.062500 0.024038 0.317215 0.000000 0.000000 0.000000 0.000000 0.000000 0.000000 0.000000 0.000000 0.000000 0.000000 0.216689 0.000000 0.000000 0.000000 0.000000 0.000000 0.000000 0.000000 0.000000 0.000000 0.000000 0.000000 5
0.000000 0.000000 0.047368 0.000000 0.000000 0.003509 0.000000 0.000000 0.000000 0.000000 0.000000 0.000000 0.074561 0.025000 0.043750 0.062500 0.006250 0.000000 0.043750 0.050000 0.000000 0.223361 0.000000 0.000000 0.038596 0.000000 0.035965 0.000877 0.000000 0.000000 0.000000 0.000877 0.011404 0.000000 0.011404 0.025000 0.043750 0.093750 0.006250 0.050000 0.050000 0.062500 0.006250 0.313525 0.000000 0.000000 0.013158 0.000000 0.000000 0.000000 0.000000 0.000000 0.179825 0.000000 0.000000 0.012281 0.000000 0.006250 0.025000 0.006250 0.000000 0.000000 0.000000 0.006250 0.006250 0.036885 0.000000 0.000000 0.005263 0.000000 0.000877 0.000000 0.000000 0.000000 0.019298 0.000000 0.127193 0.000000 0.000000 0.006250 0.050000 0.000000 0.000000 0.018750 0.068750 0.006250 0.000000 0.188525 0.000000 0.000000 0.000000 0.000000 0.000000 0.000000 0.000000 0.000000 0.072807 0.000000 0.064912 0.015789 0.000000 0.025000 0.068750 0.006250 0.000000 0.018750 0.062500 0.031250 0.006250 0.231557 0.000000 0.000000 0.000000 0.000000 0.000000 0.000000 0.000000 0.000000 0.000000 0.000000 0.264035 0.000000 0.000000 0.000000 0.000000 0.000000 0.000000 0.000000 0.012500 0.000000 0.000000 0.006148 7
0.000000 0.000000 0.000000 0.000000 0.000000 0.000000 0.000000 0.000000 0.000000 0.000000 0.000000 0.000000 0.222852 0.005747 0.022989 0.017241 0.000000 0.000000 0.000000 0.000000 0.000000 0.041308 0.000000 0.000000 0.000000 0.000000 0.000000 0.000000 0.075543 0.000000 0.000000 0.000000 0.027384 0.000000 0.048159 0.000000 0.040230 0.068966 0.000000 0.017241 0.057471 0.057471 0.000000 0.172117 0.000000 0.028329 0.000000 0.000000 0.003777 0.000000 0.046270 0.000000 0.000000 0.000000 0.000000 0.000000 0.075543 0.011494 0.063218 0.005747 0.000000 0.022989 0.051724 0.022989 0.000000 0.166954 0.000000 0.020774 0.000000 0.000000 0.000000 0.000000 0.163362 0.000000 0.000000 0.000000 0.036827 0.000000 0.000000 0.000000 0.011494 0.045977 0.011494 0.005747 0.000000 0.000000 0.000000 0.044750 0.000000 0.056657 0.000000 0.000000 0.033994 0.000000 0.000000 0.000000 0.000000 0.000000 0.000944 0.025496 0.002833 0.063218 0.034483 0.045977 0.017241 0.022989 0.017241 0.074713 0.028736 0.297762 0.000000 0.002833 0.000000 0.000000 0.016053 0.000000 0.000000 0.000000 0.000000 0.000000 0.112370 0.000000 0.000000 0.000000 0.017241 0.005747 0.000000 0.034483 0.040230 0.057471 0.000000 0.277108 6
0.000000 0.018595 0.000000 0.002066 0.001033 0.000000 0.034091 0.000000 0.000000 0.000000 0.000000 0.000000 0.106405 0.021858 0.054645 0.027322 0.000000 0.010929 0.038251 0.016393 0.000000 0.159615 0.000000 0.019628 0.000000 0.032025 0.000000 0.000000 0.072314 0.000000 0.000000 0.048554 0.000000 0.000000 0.005165 0.016393 0.010929 0.081967 0.010929 0.032787 0.027322 0.038251 0.005464 0.161538 0.000000 0.027893 0.003099 0.000000 0.002066 0.000000 0.000000 0.000000 0.104339 0.000000 0.000000 0.022727 0.000000 0.032787 0.016393 0.049180 0.010929 0.005464 0.005464 0.054645 0.016393 0.163462 0.000000 0.009298 0.006198 0.000000 0.003099 0.000000 0.000000 0.000000 0.006198 0.000000 0.087810 0.000000 0.000000 0.005464 0.043716 0.027322 0.000000 0.027322 0.065574 0.032787 0.005464 0.282692 0.000000 0.000000 0.000000 0.000000 0.000000 0.000000 0.000000 0.000000 0.049587 0.000000 0.047521 0.034091 0.000000 0.032787 0.049180 0.005464 0.000000 0.032787 0.032787 0.027322 0.005464 0.217308 0.000000 0.000000 0.000000 0.000000 0.000000 0.000000 0.000000 0.000000 0.000000 0.000000 0.256198 0.000000 0.000000 0.000000 0.000000 0.000000 0.000000 0.005464 0.010929 0.005464 0.000000 0.015385 9
0.000000 0.000000 0.000000 0.002050 0.000000 0.000000 0.019477 0.000000 0.000000 0.000000 0.000000 0.000000 0.145054 0.041885 0.031414 0.020942 0.000000 0.036649 0.020942 0.005236 0.000000 0.136286 0.000000 0.000000 0.000000 0.013326 0.000000 0.000000 0.054844 0.000000 0.000000 0.109175 0.000000 0.000000 0.000000 0.005236 0.000000 0.052356 0.010471 0.010471 0.020942 0.031414 0.015707 0.100511 0.000000 0.013326 0.000000 0.000000 0.000000 0.000000 0.002563 0.000000 0.003075 0.000000 0.003075 0.000000 0.128652 0.047120 0.026178 0.015707 0.015707 0.031414 0.015707 0.000000 0.010471 0.189097 0.000000 0.026140 0.000000 0.000000 0.000000 0.005126 0.006663 0.000000 0.000000 0.008201 0.104049 0.000000 0.000000 0.000000 0.031414 0.099476 0.005236 0.000000 0.047120 0.094241 0.000000 0.190801 0.000000 0.000000 0.000000 0.000000 0.009739 0.000000 0.000000 0.000000 0.000000 0.000000 0.069708 0.000513 0.039979 0.031414 0.052356 0.020942 0.000000 0.031414 0.052356 0.062827 0.005236 0.383305 0.000000 0.000000 0.000000 0.000000 0.000000 0.000000 0.000000 0.000000 0.000000 0.000000 0.235264 0.000000 0.000000 0.000000 0.000000 0.000000 0.000000 0.000000 0.000000 0.000000 0.000000 0.000000 8
0.000000 0.000000 0.000000 0.000000 0.000000 0.000000 0.000000 0.000000 0.000000 0.000000 0.000000 0.000000 0.193069 0.000000 0.000000 0.000000 0.000000 0.000000 0.000000 0.000000 0.000000 0.000000 0.000000 0.000000 0.000000 0.000000 0.000000 0.000000 0.000000 0.000000 0.000000 0.000000 0.032178 0.000000 0.099010 0.054348 0.076087 0.043478 0.000000 0.054348 0.086957 0.010870 0.000000 0.284091 0.000000 0.000000 0.000000 0.000000 0.000000 0.000000 0.000000 0.000000 0.000000 0.000000 0.000000 0.000000 0.161716 0.010870 0.076087 0.010870 0.000000 0.010870 0.010870 0.000000 0.000000 0.143939 0.000000 0.000000 0.000000 0.000000 0.000000 0.000000 0.000000 0.000000 0.000000 0.000000 0.146040 0.000000 0.009076 0.010870 0.043478 0.021739 0.000000 0.021739 0.097826 0.000000 0.000000 0.174242 0.000000 0.000000 0.000000 0.000000 0.000000 0.000000 0.000000 0.000000 0.000000 0.000000 0.088284 0.002475 0.045380 0.043478 0.097826 0.010870 0.000000 0.032609 0.119565 0.032609 0.021739 0.397727 0.000000 0.000000 0.000000 0.000000 0.000000 0.000000 0.000000 0.000000 0.000000 0.000000 0.222772 0.000000 0.000000 0.000000 0.000000 0.000000 0.000000 0.000000 0.000000 0.000000 0.000000 0.000000 1
0.000000 0.000000 0.000000 0.000000 0.000000 0.000000 0.000000 0.000000 0.000000 0.000000 0.000000 0.000000 0.215004 0.004975 0.014925 0.014925 0.000000 0.000000 0.000000 0.000000 0.000000 0.031189 0.000000 0.015468 0.000000 0.000000 0.051817 0.000000 0.004640 0.000000 0.000000 0.009281 0.002320 0.000000 0.047951 0.024876 0.059701 0.054726 0.000000 0.049751 0.069652 0.029851 0.004975 0.241715 0.000000 0.000000 0.000000 0.000000 0.064965 0.000000 0.000000 0.000000 0.000000 0.000000 0.000000 0.000000 0.092807 0.019900 0.049751 0.009950 0.000000 0.019900 0.049751 0.009950 0.000000 0.175439 0.000000 0.000000 0.000000 0.000000 0.102088 0.000000 0.000000 0.000000 0.000000 0.000000 0.067285 0.000000 0.000000 0.019900 0.049751 0.000000 0.000000 0.029851 0.039801 0.009950 0.000000 0.146199 0.000000 0.000000 0.000000 0.000000 0.087394 0.000000 0.000000 0.000000 0.000000 0.000000 0.014695 0.011601 0.006961 0.039801 0.044776 0.039801 0.009950 0.029851 0.034826 0.059701 0.019900 0.309942 0.000000 0.000000 0.000000 0.000000 0.007734 0.000000 0.000000 0.000000 0.000000 0.000000 0.197989 0.000000 0.000000 0.000000 0.024876 0.000000 0.000000 0.014925 0.029851 0.014925 0.000000 0.095517 0
0.000000 0.000000 0.013076 0.000000 0.000000 0.000000 0.000000 0.000000 0.000000 0.000000 0.000000 0.000000 0.181005 0.010000 0.045000 0.015000 0.000000 0.005000 0.020000 0.015000 0.000000 0.106222 0.000000 0.000000 0.072953 0.000000 0.031659 0.001376 0.000000 0.000000 0.000000 0.015829 0.002065 0.000000 0.009635 0.020000 0.040000 0.055000 0.025000 0.055000 0.040000 0.045000 0.020000 0.239757 0.000000 0.000000 0.011012 0.000000 0.014453 0.000000 0.000000 0.000000 0.072264 0.000000 0.000000 0.000000 0.107364 0.005000 0.035000 0.040000 0.000000 0.000000 0.005000 0.010000 0.005000 0.081942 0.000000 0.000000 0.016518 0.000000 0.006194 0.000000 0.044047 0.009635 0.037164 0.000000 0.011012 0.000000 0.000000 0.020000 0.030000 0.045000 0.030000 0.030000 0.040000 0.020000 0.010000 0.259484 0.000000 0.000000 0.000000 0.000000 0.046800 0.000000 0.000000 0.000000 0.000000 0.000000 0.051617 0.003441 0.023400 0.045000 0.025000 0.010000 0.000000 0.005000 0.045000 0.050000 0.010000 0.257967 0.000000 0.000000 0.000000 0.000000 0.000000 0.000000 0.000688 0.032347 0.000000 0.000000 0.184446 0.000000 0.000000 0.000000 0.000000 0.000000 0.005000 0.005000 0.030000 0.015000 0.020000 0.054628 2
0.000000 0.000000 0.039326 0.000000 0.000000 0.000000 0.000000 0.000000 0.014747 0.000000 0.000000 0.000000 0.107444 0.007843 0.035294 0.035294 0.003922 0.000000 0.023529 0.043137 0.003922 0.154070 0.000000 0.000000 0.044242 0.000000 0.006320 0.000702 0.003511 0.000000 0.008427 0.098315 0.000000 0.000000 0.000000 0.000000 0.015686 0.039216 0.031373 0.015686 0.007843 0.047059 0.015686 0.154070 0.000000 0.000000 0.011236 0.000000 0.000000 0.000000 0.000000 0.000000 0.120787 0.000000 0.000000 0.000000 0.049157 0.000000 0.023529 0.031373 0.000000 0.000000 0.011765 0.031373 0.007843 0.113372 0.000000 0.000000 0.061798 0.000000 0.004916 0.000000 0.008427 0.000000 0.032303 0.018258 0.000000 0.000000 0.000000 0.007843 0.027451 0.035294 0.019608 0.031373 0.015686 0.058824 0.011765 0.228198 0.023174 0.000000 0.000000 0.000000 0.000000 0.000000 0.000000 0.001404 0.106742 0.000000 0.014747 0.002809 0.035815 0.003922 0.027451 0.062745 0.003922 0.007843 0.015686 0.062745 0.011765 0.175872 0.000000 0.000000 0.000000 0.000000 0.000000 0.000000 0.000000 0.000000 0.056882 0.000000 0.128511 0.000000 0.000000 0.000000 0.035294 0.035294 0.000000 0.000000 0.047059 0.047059 0.000000 0.174419 3
0.000000 0.017493 0.000000 0.000000 0.000000 0.000000 0.000000 0.000000 0.000000 0.000000 0.000000 0.000000 0.155977 0.000000 0.048913 0.032609 0.000000 0.000000 0.032609 0.016304 0.000000 0.122449 0.000000 0.020408 0.000000 0.000000 0.000000 0.045190 0.000000 0.000000 0.000000 0.001458 0.026239 0.000000 0.073615 0.032609 0.048913 0.027174 0.005435 0.048913 0.054348 0.005435 0.000000 0.168831 0.000000 0.013848 0.000000 0.000000 0.069971 0.000000 0.000000 0.000000 0.013120 0.000000 0.000000 0.010204 0.006560 0.032609 0.032609 0.048913 0.021739 0.005435 0.027174 0.027174 0.032609 0.274583 0.000000 0.007289 0.000000 0.000000 0.013848 0.002187 0.006560 0.000000 0.000000 0.000000 0.113703 0.000000 0.000000 0.016304 0.043478 0.016304 0.005435 0.032609 0.059783 0.032609 0.000000 0.228200 0.000000 0.000000 0.000000 0.000000 0.000000 0.000000 0.000000 0.000000 0.048105 0.000000 0.082362 0.024781 0.000000 0.038043 0.048913 0.005435 0.000000 0.021739 0.065217 0.021739 0.005435 0.204082 0.000000 0.000000 0.000000 0.000000 0.000000 0.000000 0.000000 0.000000 0.000000 0.000000 0.247085 0.000000 0.000000 0.000000 0.000000 0.000000 0.000000 0.000000 0.000000 0.005435 0.000000 0.001855 4
0.000000 0.000000 0.000000 0.000000 0.000000 0.000000 0.000000 0.000000 0.000000 0.000000 0.000000 0.000000 0.218182 0.000000 0.000000 0.000000 0.000000 0.000000 0.000000 0.000000 0.000000 0.000000 0.000000 0.000000 0.000000 0.000000 0.000000 0.000000 0.000000 0.000000 0.000000 0.001653 0.044628 0.000000 0.085950 0.077922 0.064935 0.025974 0.012987 0.090909 0.051948 0.012987 0.000000 0.278075 0.000000 0.000000 0.000000 0.000000 0.000000 0.000000 0.000000 0.000000 0.000000 0.000000 0.000000 0.000000 0.190083 0.064935 0.051948 0.000000 0.000000 0.000000 0.000000 0.000000 0.000000 0.090909 0.000000 0.000000 0.000000 0.000000 0.000000 0.000000 0.000000 0.000000 0.000000 0.000000 0.133884 0.000000 0.001653 0.012987 0.025974 0.000000 0.000000 0.103896 0.051948 0.000000 0.000000 0.267380 0.000000 0.000000 0.000000 0.000000 0.000000 0.000000 0.000000 0.000000 0.000000 0.000000 0.049587 0.000000 0.061157 0.064935 0.090909 0.000000 0.000000 0.038961 0.077922 0.051948 0.000000 0.347594 0.000000 0.000000 0.000000 0.000000 0.000000 0.000000 0.000000 0.000000 0.000000 0.000000 0.213223 0.000000 0.000000 0.000000 0.000000 0.000000 0.000000 0.000000 0.025974 0.000000 0.000000 0.016043 1
0.000000 0.000000 0.015703 0.000000 0.000000 0.000000 0.000000 0.000000 0.000000 0.000000 0.000000 0.000000 0.137759 0.000000 0.069364 0.034682 0.000000 0.000000 0.028902 0.023121 0.000000 0.187266 0.000000 0.000000 0.022841 0.000000 0.041399 0.022841 0.000000 0.000000 0.000000 0.002141 0.007852 0.000000 0.025696 0.011561 0.057803 0.063584 0.023121 0.069364 0.040462 0.069364 0.011561 0.295880 0.000000 0.000000 0.049251 0.000000 0.000000 0.000000 0.000000 0.017844 0.057102 0.000000 0.000000 0.064240 0.002141 0.017341 0.017341 0.000000 0.000000 0.000000 0.034682 0.023121 0.005780 0.089888 0.000000 0.000000 0.046395 0.000000 0.004283 0.000000 0.000000 0.000000 0.017131 0.000000 0.087081 0.000000 0.000000 0.028902 0.057803 0.017341 0.000000 0.023121 0.063584 0.005780 0.000000 0.211610 0.000000 0.000000 0.000000 0.000000 0.000000 0.000000 0.000000 0.000000 0.034261 0.000000 0.012848 0.117773 0.000000 0.034682 0.052023 0.005780 0.000000 0.011561 0.023121 0.028902 0.000000 0.157303 0.000000 0.000000 0.000000 0.000000 0.000000 0.000000 0.000000 0.000000 0.000000 0.000000 0.213419 0.000000 0.000000 0.000000 0.000000 0.000000 0.000000 0.005780 0.040462 0.000000 0.000000 0.058052 7
0.000000 0.000000 0.000000 0.000000 0.000000 0.000000 0.000000 0.000000 0.000000 0.000000 0.000000 0.000000 0.227310 0.000000 0.011976 0.011976 0.000000 0.000000 0.000000 0.000000 0.000000 0.014898 0.000000 0.000000 0.000000 0.000000 0.000000 0.000818 0.019624 0.000000 0.000000 0.000000 0.062960 0.000000 0.067866 0.011976 0.053892 0.065868 0.005988 0.011976 0.065868 0.041916 0.000000 0.188082 0.000000 0.023712 0.000000 0.000000 0.010630 0.000000 0.023712 0.000000 0.000000 0.000000 0.000000 0.000000 0.093213 0.005988 0.077844 0.023952 0.000000 0.011976 0.053892 0.023952 0.000000 0.188082 0.000000 0.005724 0.000000 0.000000 0.000000 0.000000 0.095666 0.000000 0.000000 0.000000 0.095666 0.000000 0.000000 0.000000 0.011976 0.041916 0.017964 0.005988 0.011976 0.011976 0.000000 0.083799 0.000000 0.008177 0.000000 0.000000 0.048242 0.000000 0.000000 0.000000 0.000000 0.000000 0.011447 0.018806 0.002453 0.053892 0.053892 0.041916 0.011976 0.017964 0.029940 0.083832 0.029940 0.370577 0.000000 0.000000 0.000000 0.000000 0.015536 0.000000 0.000000 0.000000 0.000000 0.000000 0.168438 0.000000 0.000000 0.000000 0.000000 0.000000 0.000000 0.017964 0.047904 0.029940 0.000000 0.154562 6
0.000000 0.000000 0.000000 0.000000 0.067451 0.000000 0.000000 0.000000 0.000000 0.000000 0.000000 0.000000 0.096471 0.020270 0.081081 0.040541 0.000000 0.000000 0.000000 0.000000 0.000000 0.172906 0.000000 0.000000 0.000000 0.000000 0.126275 0.000784 0.002353 0.000000 0.000000 0.018824 0.000000 0.000000 0.002353 0.000000 0.013514 0.067568 0.047297 0.054054 0.020270 0.000000 0.000000 0.203209 0.000000 0.000000 0.003137 0.000000 0.031373 0.000000 0.000000 0.000000 0.093333 0.000000 0.000000 0.037647 0.000000 0.033784 0.020270 0.000000 0.000000 0.000000 0.013514 0.074324 0.027027 0.169340 0.000000 0.000000 0.004706 0.000000 0.014902 0.000000 0.000000 0.000000 0.007059 0.000000 0.108235 0.000000 0.000000 0.013514 0.027027 0.000000 0.000000 0.033784 0.081081 0.040541 0.006757 0.238859 0.000000 0.000000 0.000000 0.000000 0.000000 0.000000 0.000000 0.000000 0.061961 0.000000 0.036863 0.053333 0.000000 0.054054 0.060811 0.013514 0.000000 0.040541 0.040541 0.047297 0.000000 0.199643 0.000000 0.000000 0.000000 0.000000 0.000000 0.000000 0.000000 0.000000 0.000000 0.000000 0.232941 0.000000 0.000000 0.000000 0.000000 0.000000 0.000000 0.006757 0.020270 0.000000 0.000000 0.016043 9
0.000000 0.014163 0.000000 0.000000 0.028755 0.000000 0.000000 0.000000 0.000000 0.000000 0.000000 0.000000 0.113734 0.035556 0.035556 0.040000 0.000000 0.026667 0.026667 0.022222 0.000000 0.174507 0.000000 0.015451 0.000000 0.000000 0.006867 0.029614 0.000000 0.000000 0.000000 0.094421 0.011159 0.000000 0.000000 0.008889 0.040000 0.080000 0.022222 0.026667 0.035556 0.075556 0.008889 0.195751 0.000000 0.000000 0.000000 0.000000 0.024893 0.000000 0.000000 0.000000 0.000858 0.000000 0.022747 0.000000 0.092275 0.048889 0.035556 0.031111 0.008889 0.035556 0.026667 0.013333 0.004444 0.230653 0.000000 0.000000 0.000000 0.000000 0.003863 0.000000 0.000000 0.000000 0.000000 0.000000 0.184979 0.000000 0.000000 0.000000 0.017778 0.022222 0.000000 0.000000 0.031111 0.044444 0.000000 0.084977 0.000000 0.000000 0.000000 0.000000 0.016309 0.000000 0.000000 0.000000 0.000000 0.000000 0.093133 0.002575 0.018026 0.026667 0.035556 0.008889 0.000000 0.035556 0.035556 0.040000 0.013333 0.314112 0.000000 0.000000 0.000000 0.000000 0.000000 0.000000 0.000000 0.000000 0.000000 0.000000 0.226180 0.000000 0.000000 0.000000 0.000000 0.000000 0.000000 0.000000 0.000000 0.000000 0.000000 0.000000 8
0.000000 0.000000 0.000000 0.000000 0.000000 0.000000 0.000000 0.000000 0.000000 0.000000 0.001493 0.000000 0.187562 0.000000 0.000000 0.000000 0.000000 0.000000 0.000000 0.000000 0.000000 0.088235 0.000000 0.000000 0.000000 0.000000 0.000000 0.000995 0.000000 0.000000 0.000000 0.000000 0.098010 0.000000 0.039303 0.049180 0.114754 0.327869 0.016393 0.032787 0.114754 0.344262 0.000000 0.274510 0.000000 0.000000 0.000000 0.000000 0.000000 0.000000 0.008955 0.000000 0.001990 0.000000 0.036816 0.000000 0.115423 0.000000 0.000000 0.000000 0.000000 0.000000 0.000000 0.000000 0.000000 0.215686 0.000000 0.000000 0.000000 0.000000 0.000000 0.000000 0.000000 0.000000 0.000000 0.000000 0.194030 0.000000 0.000000 0.000000 0.000000 0.000000 0.000000 0.000000 0.000000 0.000000 0.000000 0.000000 0.002488 0.001493 0.000000 0.000000 0.000000 0.017413 0.000498 0.000000 0.003980 0.000000 0.058209 0.001493 0.035821 0.000000 0.000000 0.000000 0.000000 0.000000 0.000000 0.000000 0.000000 0.421569 0.000000 0.000000 0.000000 0.000000 0.000000 0.000000 0.000000 0.000000 0.000000 0.000000 0.194030 0.000000 0.000000 0.000000 0.000000 0.000000 0.000000 0.000000 0.000000 0.000000 0.000000 0.000000 5
0.000000 0.000000 0.000000 0.000000 0.000000 0.000000 0.000000 0.000000 0.000000 0.000000 0.000000 0.000000 0.204528 0.009009 0.054054 0.018018 0.000000 0.000000 0.000000 0.000000 0.000000 0.060952 0.000000 0.000000 0.000000 0.000000 0.063232 0.000000 0.000000 0.000000 0.000000 0.003903 0.022639 0.000000 0.032787 0.000000 0.054054 0.117117 0.009009 0.063063 0.054054 0.000000 0.000000 0.260952 0.000000 0.000000 0.000000 0.000000 0.086651 0.000000 0.000000 0.000000 0.000000 0.000000 0.000000 0.000000 0.074941 0.045045 0.081081 0.009009 0.000000 0.000000 0.000000 0.000000 0.000000 0.165714 0.000000 0.000000 0.000000 0.000000 0.064012 0.000000 0.000000 0.000000 0.000000 0.000000 0.109290 0.000000 0.000000 0.000000 0.000000 0.000000 0.000000 0.054054 0.072072 0.009009 0.000000 0.137143 0.000000 0.000000 0.000000 0.000000 0.073380 0.000000 0.000000 0.000000 0.000000 0.000000 0.027322 0.012490 0.004684 0.072072 0.027027 0.000000 0.000000 0.000000 0.054054 0.090090 0.036036 0.312381 0.000000 0.000000 0.000000 0.000000 0.000000 0.000000 0.000000 0.000000 0.000000 0.000000 0.220141 0.000000 0.000000 0.000000 0.000000 0.000000 0.000000 0.018018 0.054054 0.000000 0.000000 0.062857 0
0.000000 0.000000 0.023952 0.000000 0.000000 0.000000 0.000000 0.000000 0.000000 0.000000 0.000000 0.000000 0.143713 0.009390 0.051643 0.032864 0.000000 0.000000 0.037559 0.023474 0.000000 0.151351 0.000000 0.000000 0.023453 0.000000 0.020459 0.000000 0.003493 0.000000 0.000000 0.109780 0.000000 0.000000 0.002495 0.028169 0.028169 0.037559 0.018779 0.046948 0.032864 0.023474 0.009390 0.172973 0.000000 0.000000 0.013972 0.000000 0.000998 0.000000 0.000000 0.000000 0.085329 0.000000 0.000000 0.000000 0.079840 0.009390 0.032864 0.042254 0.000000 0.000000 0.004695 0.014085 0.000000 0.117568 0.000000 0.000000 0.004990 0.000000 0.000998 0.000000 0.017465 0.030938 0.008982 0.069860 0.000998 0.000000 0.000000 0.014085 0.028169 0.051643 0.037559 0.018779 0.037559 0.089202 0.018779 0.241892 0.000000 0.000000 0.000000 0.000000 0.014970 0.000000 0.000000 0.000000 0.000000 0.000000 0.074850 0.000998 0.029940 0.028169 0.046948 0.009390 0.000000 0.009390 0.065728 0.056338 0.004695 0.316216 0.000000 0.000000 0.000000 0.000000 0.000000 0.000000 0.000000 0.000000 0.000000 0.000000 0.237525 0.000000 0.000000 0.000000 0.000000 0.000000 0.000000 0.000000 0.000000 0.000000 0.000000 0.000000 2
0.000000 0.000000 0.000838 0.000000 0.000000 0.002513 0.000000 0.000000 0.123116 0.000000 0.000000 0.000000 0.061977 0.015810 0.007905 0.059289 0.003953 0.000000 0.003953 0.055336 0.007905 0.126911 0.000000 0.000000 0.026801 0.000000 0.006700 0.000838 0.013400 0.000000 0.036013 0.010050 0.011725 0.000000 0.000000 0.003953 0.031621 0.083004 0.015810 0.015810 0.035573 0.059289 0.003953 0.278287 0.000000 0.000000 0.020101 0.000000 0.000000 0.000000 0.000000 0.000000 0.126466 0.000000 0.000000 0.000000 0.046901 0.000000 0.023715 0.043478 0.000000 0.000000 0.011858 0.043478 0.007905 0.117737 0.000000 0.000000 0.041876 0.000000 0.000000 0.000000 0.018425 0.000000 0.050251 0.000000 0.026801 0.000000 0.000000 0.007905 0.019763 0.023715 0.019763 0.027668 0.011858 0.051383 0.011858 0.220183 0.013400 0.000000 0.000000 0.000000 0.000000 0.003350 0.000000 0.000000 0.113065 0.000000 0.020938 0.000838 0.027638 0.011858 0.023715 0.059289 0.003953 0.003953 0.011858 0.067194 0.003953 0.143731 0.000000 0.000000 0.000000 0.000000 0.000000 0.000000 0.000000 0.000000 0.025126 0.000000 0.170854 0.000000 0.000000 0.003953 0.019763 0.015810 0.000000 0.000000 0.039526 0.027668 0.000000 0.113150 3
0.000000 0.011815 0.000000 0.000000 0.000000 0.010870 0.000000 0.000000 0.000000 0.000000 0.000000 0.000000 0.157845 0.014019 0.032710 0.009346 0.004673 0.018692 0.028037 0.004673 0.000000 0.090164 0.000000 0.000000 0.000000 0.000000 0.000000 0.071361 0.000000 0.000000 0.000000 0.000945 0.025047 0.000000 0.071361 0.042056 0.042056 0.014019 0.004673 0.046729 0.037383 0.000000 0.000000 0.162295 0.000000 0.067108 0.000000 0.000000 0.014650 0.012287 0.000000 0.000000 0.000000 0.000000 0.000000 0.001890 0.025520 0.037383 0.056075 0.065421 0.009346 0.028037 0.042056 0.028037 0.009346 0.295082 0.000000 0.000000 0.000000 0.000000 0.000000 0.039225 0.000945 0.000000 0.000000 0.000000 0.108223 0.000000 0.000000 0.023364 0.042056 0.004673 0.004673 0.042056 0.042056 0.018692 0.000000 0.232787 0.000000 0.000000 0.005671 0.000000 0.000945 0.000000 0.000000 0.000000 0.029301 0.000000 0.020321 0.106805 0.000000 0.046729 0.042056 0.000000 0.000000 0.018692 0.037383 0.051402 0.014019 0.188525 0.000000 0.000000 0.000000 0.000000 0.000000 0.000000 0.000000 0.000000 0.000000 0.000000 0.217864 0.000000 0.000000 0.000000 0.000000 0.000000 0.000000 0.018692 0.018692 0.000000 0.000000 0.031148 4
0.000000 0.000000 0.019001 0.000000 0.000000 0.000000 0.000000 0.000000 0.000000 0.000000 0.000000 0.000000 0.161290 0.004902 0.053922 0.024510 0.000000 0.009804 0.034314 0.009804 0.000000 0.116694 0.000000 0.000000 0.008396 0.000000 0.021653 0.014141 0.000000 0.000000 0.000000 0.000000 0.033142 0.000000 0.043305 0.019608 0.068627 0.049020 0.009804 0.068627 0.058824 0.024510 0.024510 0.335494 0.000000 0.000000 0.058772 0.000000 0.000000 0.000000 0.000000 0.003977 0.058772 0.000000 0.000000 0.040212 0.011931 0.019608 0.053922 0.004902 0.000000 0.004902 0.039216 0.024510 0.004902 0.141005 0.000000 0.000000 0.010163 0.000000 0.010605 0.000000 0.000000 0.000000 0.000884 0.000000 0.134335 0.000000 0.000000 0.029412 0.039216 0.004902 0.000000 0.039216 0.058824 0.004902 0.000000 0.205835 0.000000 0.000000 0.000000 0.000000 0.000000 0.000000 0.000000 0.000000 0.038886 0.000000 0.040212 0.079540 0.000000 0.044118 0.053922 0.000000 0.000000 0.034314 0.049020 0.019608 0.000000 0.196110 0.000000 0.000000 0.000000 0.000000 0.000000 0.000000 0.000000 0.000000 0.000000 0.000000 0.210782 0.000000 0.000000 0.000000 0.000000 0.000000 0.000000 0.000000 0.009804 0.000000 0.000000 0.004862 7
0.000000 0.000000 0.000000 0.000000 0.000000 0.000000 0.000000 0.000000 0.000000 0.000000 0.000000 0.000000 0.201550 0.000000 0.000000 0.000000 0.000000 0.000000 0.000000 0.000000 0.000000 0.000000 0.000000 0.000000 0.000000 0.000000 0.000000 0.000000 0.002215 0.000000 0.000000 0.001107 0.014396 0.000000 0.126246 0.080460 0.068966 0.011494 0.022989 0.080460 0.057471 0.000000 0.000000 0.285714 0.000000 0.000000 0.000000 0.000000 0.000000 0.000000 0.000000 0.000000 0.000000 0.000000 0.000000 0.000000 0.181617 0.022989 0.045977 0.011494 0.000000 0.000000 0.000000 0.000000 0.000000 0.077922 0.000000 0.000000 0.000000 0.000000 0.000000 0.000000 0.000000 0.000000 0.000000 0.000000 0.122924 0.000000 0.018826 0.034483 0.057471 0.000000 0.000000 0.057471 0.103448 0.000000 0.000000 0.294372 0.000000 0.000000 0.000000 0.000000 0.000000 0.000000 0.000000 0.000000 0.000000 0.000000 0.073090 0.001107 0.040975 0.068966 0.080460 0.011494 0.000000 0.034483 0.103448 0.022989 0.011494 0.337662 0.000000 0.000000 0.000000 0.000000 0.000000 0.000000 0.000000 0.000000 0.000000 0.000000 0.215947 0.000000 0.000000 0.000000 0.000000 0.000000 0.000000 0.000000 0.011494 0.000000 0.000000 0.004329 1
0.000000 0.000000 0.000000 0.000000 0.000000 0.000000 0.000000 0.000000 0.000000 0.000000 0.000000 0.000000 0.223350 0.000000 0.000000 0.000000 0.000000 0.000000 0.000000 0.000000 0.000000 0.000000 0.000000 0.000000 0.000000 0.000000 0.000000 0.000000 0.024746 0.000000 0.000000 0.000000 0.049492 0.000000 0.091371 0.010870 0.070652 0.048913 0.000000 0.032609 0.054348 0.038043 0.000000 0.183219 0.000000 0.003807 0.000000 0.000000 0.025381 0.000000 0.000635 0.000000 0.000000 0.000000 0.000000 0.000000 0.130711 0.010870 0.081522 0.010870 0.000000 0.016304 0.038043 0.016304 0.000000 0.169521 0.000000 0.024746 0.000000 0.000000 0.003173 0.000000 0.069162 0.000000 0.000000 0.000000 0.074239 0.000000 0.000000 0.000000 0.032609 0.043478 0.005435 0.032609 0.038043 0.005435 0.000000 0.167808 0.000000 0.000000 0.000000 0.000000 0.041244 0.000000 0.000000 0.000000 0.000000 0.000000 0.014594 0.012056 0.015228 0.048913 0.070652 0.038043 0.010870 0.010870 0.054348 0.065217 0.027174 0.378425 0.000000 0.000000 0.000000 0.000000 0.018401 0.000000 0.000000 0.000000 0.000000 0.000000 0.177665 0.000000 0.000000 0.000000 0.000000 0.000000 0.000000 0.010870 0.048913 0.027174 0.000000 0.101027 6
0.000000 0.029240 0.000000 0.003655 0.010234 0.000000 0.010965 0.000000 0.000000 0.000000 0.000000 0.000000 0.105994 0.000000 0.056338 0.032864 0.000000 0.004695 0.042254 0.023474 0.000000 0.158203 0.000000 0.054094 0.000000 0.041667 0.000000 0.000000 0.029971 0.000000 0.000000 0.013889 0.000000 0.000000 0.008772 0.014085 0.023474 0.070423 0.018779 0.023474 0.023474 0.061033 0.009390 0.189453 0.000000 0.038012 0.007310 0.000000 0.041667 0.000000 0.000000 0.000000 0.026316 0.000000 0.000000 0.020468 0.002193 0.037559 0.023474 0.061033 0.009390 0.018779 0.023474 0.056338 0.018779 0.222656 0.000000 0.033626 0.000000 0.000000 0.002193 0.000000 0.000000 0.000000 0.000000 0.000000 0.089912 0.000000 0.000000 0.004695 0.037559 0.032864 0.000000 0.014085 0.056338 0.023474 0.004695 0.250000 0.000000 0.000000 0.000000 0.000000 0.000000 0.000000 0.000000 0.000000 0.051170 0.000000 0.049708 0.087719 0.000000 0.023474 0.051643 0.000000 0.000000 0.023474 0.032864 0.018779 0.004695 0.160156 0.000000 0.000000 0.000000 0.000000 0.000000 0.000000 0.000000 0.000000 0.000000 0.000000 0.241228 0.000000 0.000000 0.000000 0.000000 0.000000 0.000000 0.000000 0.018779 0.000000 0.000000 0.019531 9
0.000000 0.016586 0.000000 0.000000 0.027104 0.000000 0.000000 0.000000 0.000000 0.000000 0.000000 0.000000 0.127832 0.012245 0.057143 0.024490 0.000000 0.012245 0.044898 0.012245 0.000000 0.150000 0.000000 0.019417 0.000000 0.000000 0.018608 0.026699 0.000809 0.000000 0.000000 0.078883 0.012945 0.000000 0.000405 0.016327 0.053061 0.073469 0.008163 0.036735 0.053061 0.044898 0.008163 0.197222 0.000000 0.000000 0.000000 0.000000 0.044094 0.000000 0.012136 0.000000 0.010922 0.000000 0.021845 0.000000 0.048948 0.048980 0.048980 0.028571 0.032653 0.028571 0.036735 0.016327 0.016327 0.265278 0.000000 0.000000 0.000000 0.000000 0.002023 0.000000 0.000000 0.000000 0.000000 0.000000 0.190534 0.000000 0.000000 0.000000 0.012245 0.016327 0.000000 0.000000 0.024490 0.040816 0.000000 0.077778 0.000000 0.000000 0.000000 0.000000 0.046926 0.000000 0.000405 0.000000 0.000405 0.000000 0.061084 0.002427 0.013754 0.036735 0.028571 0.000000 0.004082 0.032653 0.036735 0.040816 0.012245 0.309722 0.000000 0.000000 0.000000 0.000000 0.000000 0.000000 0.000000 0.000000 0.000000 0.000000 0.215210 0.000000 0.000000 0.000000 0.000000 0.000000 0.000000 0.000000 0.000000 0.000000 0.000000 0.000000 8
0.000000 0.000000 0.000000 0.000000 0.000000 0.000000 0.012987 0.000000 0.000000 0.000000 0.000000 0.000000 0.168290 0.008403 0.037815 0.029412 0.000000 0.000000 0.029412 0.004202 0.000000 0.125000 0.000000 0.000000 0.000000 0.000000 0.000000 0.001082 0.082792 0.001082 0.000000 0.007576 0.043290 0.000000 0.027056 0.000000 0.021008 0.075630 0.008403 0.008403 0.029412 0.075630 0.004202 0.177469 0.000000 0.000000 0.002706 0.000000 0.001082 0.000000 0.007576 0.000000 0.093074 0.000000 0.000000 0.000000 0.061688 0.016807 0.008403 0.033613 0.008403 0.000000 0.004202 0.067227 0.004202 0.168210 0.000000 0.000000 0.001082 0.000000 0.000000 0.000000 0.042208 0.000000 0.050325 0.000000 0.063853 0.000000 0.000000 0.008403 0.012605 0.054622 0.025210 0.016807 0.016807 0.033613 0.021008 0.192901 0.009199 0.000000 0.000000 0.000000 0.000000 0.009199 0.000000 0.000541 0.063312 0.000000 0.033009 0.003247 0.027056 0.021008 0.037815 0.058824 0.012605 0.004202 0.033613 0.058824 0.012605 0.226852 0.000000 0.000000 0.000000 0.000000 0.000000 0.000000 0.000000 0.000000 0.005952 0.000000 0.180736 0.000000 0.000000 0.000000 0.016807 0.016807 0.000000 0.000000 0.033613 0.029412 0.000000 0.109568 5
0.000000 0.000000 0.000000 0.000000 0.000000 0.000000 0.000000 0.000000 0.000000 0.000000 0.000000 0.000000 0.219116 0.000000 0.018868 0.009434 0.000000 0.000000 0.000000 0.000000 0.000000 0.008163 0.000000 0.000000 0.000000 0.000000 0.028855 0.000000 0.001803 0.000000 0.000000 0.000000 0.007214 0.000000 0.074842 0.000000 0.094340 0.084906 0.009434 0.075472 0.037736 0.000000 0.000000 0.275510 0.000000 0.000000 0.000000 0.000000 0.045086 0.000000 0.000000 0.000000 0.000000 0.000000 0.000000 0.000000 0.103697 0.018868 0.103774 0.018868 0.000000 0.000000 0.000000 0.000000 0.000000 0.167347 0.000000 0.000000 0.000000 0.000000 0.100992 0.000000 0.000000 0.000000 0.000000 0.000000 0.060415 0.000000 0.000000 0.000000 0.000000 0.000000 0.000000 0.066038 0.056604 0.000000 0.000000 0.165306 0.000000 0.000000 0.000000 0.000000 0.085663 0.000000 0.000000 0.000000 0.000000 0.000000 0.024346 0.007214 0.010821 0.084906 0.028302 0.000000 0.000000 0.000000 0.047170 0.094340 0.028302 0.291837 0.000000 0.000000 0.000000 0.000000 0.012624 0.000000 0.000000 0.000000 0.000000 0.000000 0.217313 0.000000 0.000000 0.000000 0.000000 0.000000 0.000000 0.018868 0.066038 0.037736 0.000000 0.091837 0
0.000000 0.000000 0.002926 0.000000 0.000000 0.000000 0.000000 0.000000 0.029842 0.000000 0.000000 0.000000 0.159743 0.008811 0.030837 0.013216 0.000000 0.000000 0.008811 0.026432 0.004405 0.102190 0.000000 0.000000 0.045056 0.000000 0.000000 0.000000 0.000000 0.000000 0.045641 0.029842 0.000000 0.000000 0.006437 0.026432 0.017621 0.039648 0.035242 0.048458 0.026432 0.026432 0.026432 0.265693 0.000000 0.000000 0.000000 0.000000 0.002341 0.000000 0.000000 0.000000 0.092452 0.000000 0.000000 0.000000 0.122294 0.008811 0.022026 0.004405 0.000000 0.000000 0.008811 0.013216 0.000000 0.040876 0.000000 0.000000 0.000000 0.000000 0.000585 0.000000 0.008777 0.007607 0.070217 0.000000 0.036864 0.000000 0.000000 0.022026 0.044053 0.026432 0.004405 0.066079 0.035242 0.017621 0.013216 0.272993 0.011703 0.000000 0.000000 0.000000 0.017554 0.000000 0.000000 0.000000 0.000000 0.000000 0.053833 0.000585 0.044470 0.035242 0.096916 0.017621 0.004405 0.030837 0.070485 0.039648 0.004405 0.262774 0.000000 0.000000 0.000000 0.000000 0.000000 0.000000 0.000585 0.026916 0.000000 0.000000 0.183733 0.000000 0.000000 0.017621 0.000000 0.000000 0.004405 0.013216 0.026432 0.008811 0.004405 0.055474 2
0.000000 0.000000 0.018293 0.000000 0.000000 0.000762 0.000000 0.000000 0.047256 0.000000 0.000000 0.000000 0.101372 0.012712 0.025424 0.033898 0.004237 0.004237 0.016949 0.038136 0.004237 0.143505 0.000000 0.000000 0.036585 0.000000 0.022104 0.000000 0.004573 0.000000 0.014482 0.016006 0.014482 0.000000 0.000762 0.000000 0.038136 0.084746 0.016949 0.016949 0.038136 0.059322 0.012712 0.259819 0.000000 0.000000 0.008384 0.000000 0.000000 0.000000 0.000000 0.000000 0.112805 0.000000 0.000000 0.000000 0.068598 0.012712 0.021186 0.029661 0.000000 0.000000 0.008475 0.038136 0.000000 0.099698 0.000000 0.000000 0.009146 0.000000 0.000000 0.000000 0.049543 0.000000 0.044207 0.000000 0.045732 0.000000 0.000000 0.012712 0.004237 0.008475 0.033898 0.021186 0.008475 0.033898 0.021186 0.181269 0.035061 0.000000 0.000000 0.000000 0.000000 0.006098 0.000000 0.000000 0.102896 0.000000 0.003811 0.009146 0.041921 0.008475 0.021186 0.055085 0.012712 0.004237 0.004237 0.063559 0.016949 0.145015 0.000000 0.000000 0.000000 0.000000 0.000000 0.000000 0.000000 0.000000 0.057165 0.000000 0.128811 0.000000 0.000000 0.012712 0.029661 0.016949 0.000000 0.021186 0.042373 0.029661 0.000000 0.170695 3
0.000000 0.024561 0.000000 0.000000 0.000000 0.006015 0.000000 0.000000 0.000000 0.000000 0.000000 0.000000 0.150376 0.009132 0.041096 0.022831 0.000000 0.018265 0.036530 0.004566 0.000000 0.110078 0.000000 0.000000 0.000000 0.000000 0.000000 0.078195 0.000000 0.000000 0.000000 0.001003 0.027068 0.000000 0.058145 0.027397 0.050228 0.004566 0.004566 0.041096 0.036530 0.000000 0.000000 0.161240 0.000000 0.098246 0.000000 0.000000 0.007519 0.007018 0.000000 0.000000 0.000000 0.000000 0.000000 0.001003 0.021053 0.041096 0.045662 0.073059 0.009132 0.018265 0.041096 0.000000 0.004566 0.252713 0.000000 0.001504 0.000000 0.000000 0.003509 0.034085 0.006516 0.000000 0.000000 0.000000 0.091729 0.000000 0.000000 0.027397 0.054795 0.013699 0.004566 0.041096 0.054795 0.000000 0.000000 0.244961 0.000000 0.000000 0.000000 0.000000 0.000000 0.000000 0.000000 0.000000 0.029073 0.000000 0.036090 0.098246 0.000000 0.045662 0.027397 0.004566 0.000000 0.018265 0.045662 0.073059 0.013699 0.201550 0.000000 0.000000 0.000000 0.000000 0.000000 0.000000 0.000000 0.000000 0.000000 0.000000 0.219048 0.000000 0.000000 0.000000 0.000000 0.000000 0.000000 0.000000 0.018265 0.027397 0.000000 0.029457 4
0.000000 0.000000 0.040688 0.000000 0.000000 0.000000 0.000000 0.000000 0.000000 0.000000 0.000000 0.000000 0.110602 0.000000 0.061798 0.056180 0.000000 0.005618 0.044944 0.033708 0.005618 0.204322 0.000000 0.000000 0.008023 0.000000 0.029226 0.006877 0.000000 0.000000 0.000000 0.000573 0.038395 0.000000 0.036676 0.011236 0.056180 0.073034 0.016854 0.028090 0.061798 0.056180 0.011236 0.312377 0.000000 0.000000 0.049284 0.000000 0.000000 0.000000 0.000000 0.000000 0.109456 0.000000 0.000000 0.019484 0.000573 0.022472 0.039326 0.005618 0.000000 0.011236 0.016854 0.016854 0.005618 0.110020 0.000000 0.000000 0.005731 0.000000 0.008023 0.000000 0.000000 0.000000 0.001719 0.000000 0.147278 0.000000 0.000000 0.011236 0.039326 0.005618 0.000000 0.022472 0.061798 0.011236 0.000000 0.165029 0.000000 0.000000 0.000000 0.000000 0.000000 0.000000 0.000000 0.000000 0.056734 0.000000 0.076791 0.029799 0.000000 0.016854 0.073034 0.005618 0.000000 0.005618 0.084270 0.016854 0.005618 0.208251 0.000000 0.000000 0.000000 0.000000 0.000000 0.000000 0.000000 0.000000 0.000000 0.000000 0.224069 0.000000 0.000000 0.000000 0.000000 0.000000 0.000000 0.000000 0.000000 0.000000 0.000000 0.000000 7
0.000000 0.000000 0.000000 0.000000 0.000000 0.000000 0.000000 0.000000 0.000000 0.000000 0.000000 0.000000 0.192649 0.000000 0.000000 0.000000 0.000000 0.000000 0.000000 0.000000 0.000000 0.000000 0.000000 0.000000 0.000000 0.000000 0.000000 0.000000 0.000000 0.000000 0.000000 0.000634 0.031686 0.000000 0.107731 0.057692 0.086538 0.028846 0.009615 0.057692 0.086538 0.000000 0.000000 0.292254 0.000000 0.000000 0.000000 0.000000 0.000000 0.000000 0.000000 0.000000 0.000000 0.000000 0.001901 0.000000 0.162231 0.009615 0.086538 0.000000 0.000000 0.009615 0.028846 0.000000 0.000000 0.158451 0.000000 0.000000 0.000000 0.000000 0.000000 0.000000 0.000000 0.000000 0.000000 0.000000 0.151458 0.000000 0.005703 0.019231 0.038462 0.009615 0.000000 0.028846 0.086538 0.009615 0.000000 0.197183 0.000000 0.000000 0.000000 0.000000 0.000000 0.000000 0.000000 0.000000 0.000000 0.000000 0.100127 0.000634 0.040558 0.067308 0.086538 0.009615 0.000000 0.038462 0.115385 0.019231 0.009615 0.352113 0.000000 0.000000 0.000000 0.000000 0.000000 0.000000 0.000000 0.000000 0.000000 0.000000 0.204689 0.000000 0.000000 0.000000 0.000000 0.000000 0.000000 0.000000 0.000000 0.000000 0.000000 0.000000 1
0.000000 0.000000 0.000000 0.000000 0.000000 0.000000 0.000000 0.000000 0.000000 0.000000 0.000000 0.000000 0.215727 0.000000 0.004831 0.000000 0.000000 0.000000 0.000000 0.000000 0.000000 0.001616 0.000000 0.000000 0.000000 0.000000 0.000000 0.000000 0.038282 0.000000 0.000000 0.000517 0.037248 0.000000 0.079669 0.014493 0.067633 0.028986 0.004831 0.014493 0.072464 0.009662 0.000000 0.189015 0.000000 0.021728 0.000000 0.000000 0.009829 0.000000 0.015520 0.000000 0.000000 0.000000 0.000000 0.000000 0.109157 0.028986 0.062802 0.019324 0.000000 0.024155 0.048309 0.014493 0.000000 0.187399 0.000000 0.027936 0.000000 0.000000 0.000000 0.000000 0.109157 0.000000 0.000000 0.000000 0.049664 0.000000 0.000000 0.004831 0.019324 0.019324 0.009662 0.019324 0.019324 0.009662 0.000000 0.092084 0.000000 0.046560 0.000000 0.000000 0.067253 0.000000 0.000000 0.000517 0.000000 0.000000 0.003621 0.011381 0.006208 0.072464 0.038647 0.053140 0.019324 0.028986 0.038647 0.057971 0.028986 0.287561 0.000000 0.011899 0.000000 0.000000 0.008277 0.000000 0.000000 0.000000 0.000000 0.000000 0.129850 0.000000 0.000000 0.014493 0.024155 0.004831 0.000000 0.024155 0.057971 0.019324 0.000000 0.242326 6
0.000000 0.000000 0.000000 0.000000 0.058329 0.000000 0.000000 0.000000 0.000000 0.000000 0.000000 0.000000 0.102636 0.018634 0.068323 0.055901 0.000000 0.000000 0.000000 0.000000 0.000000 0.157514 0.000000 0.000000 0.000000 0.000000 0.115536 0.000000 0.003365 0.000000 0.000000 0.004487 0.003365 0.000000 0.007852 0.000000 0.018634 0.099379 0.024845 0.062112 0.024845 0.006211 0.000000 0.251445 0.000000 0.000000 0.001683 0.000000 0.030847 0.000000 0.000000 0.000000 0.095906 0.000000 0.000000 0.000000 0.020191 0.024845 0.043478 0.000000 0.000000 0.000000 0.006211 0.080745 0.031056 0.189306 0.000000 0.000000 0.000000 0.000000 0.012900 0.000000 0.000000 0.000000 0.000000 0.000000 0.137970 0.000000 0.000000 0.012422 0.000000 0.000000 0.000000 0.031056 0.080745 0.037267 0.006211 0.209538 0.000000 0.000000 0.000000 0.000000 0.000000 0.000000 0.000000 0.000000 0.045990 0.000000 0.095345 0.001683 0.016826 0.018634 0.086957 0.006211 0.000000 0.024845 0.086957 0.031056 0.012422 0.192197 0.000000 0.000000 0.000000 0.000000 0.000000 0.000000 0.000000 0.000000 0.000000 0.000000 0.245093 0.000000 0.000000 0.000000 0.000000 0.000000 0.000000 0.000000 0.000000 0.000000 0.000000 0.000000 9
0.000000 0.010485 0.000000 0.000000 0.048932 0.000000 0.000000 0.000000 0.000388 0.000388 0.000000 0.000000 0.089320 0.043290 0.030303 0.056277 0.012987 0.034632 0.021645 0.030303 0.017316 0.188148 0.000000 0.006602 0.000000 0.000000 0.001553 0.055146 0.000000 0.000000 0.000000 0.060971 0.032233 0.000000 0.000000 0.004329 0.047619 0.086580 0.008658 0.030303 0.051948 0.051948 0.008658 0.185185 0.000000 0.000000 0.000000 0.000000 0.016311 0.000000 0.000000 0.000000 0.013204 0.000000 0.023689 0.000000 0.078447 0.030303 0.051948 0.021645 0.012987 0.034632 0.025974 0.008658 0.012987 0.256296 0.000000 0.000000 0.000000 0.000000 0.000000 0.000000 0.000000 0.000000 0.000000 0.000000 0.189903 0.000000 0.000000 0.000000 0.004329 0.004329 0.000000 0.000000 0.021645 0.030303 0.000000 0.057778 0.000000 0.000000 0.000000 0.000000 0.038835 0.000000 0.000000 0.000000 0.000000 0.000000 0.079612 0.003107 0.020194 0.025974 0.038961 0.004329 0.000000 0.034632 0.038961 0.047619 0.012987 0.312593 0.000000 0.000000 0.000000 0.000000 0.000000 0.000000 0.000000 0.000000 0.000000 0.000000 0.230680 0.000000 0.000000 0.000000 0.000000 0.000000 0.000000 0.000000 0.000000 0.000000 0.000000 0.000000 8
0.000000 0.000000 0.000000 0.000000 0.000000 0.000000 0.006734 0.000000 0.000000 0.000000 0.000000 0.000000 0.120090 0.012579 0.044025 0.050314 0.012579 0.000000 0.012579 0.012579 0.000000 0.217631 0.000000 0.000000 0.000000 0.000000 0.000000 0.000000 0.086420 0.000000 0.000000 0.080808 0.000000 0.000000 0.006734 0.000000 0.012579 0.094340 0.012579 0.000000 0.037736 0.031447 0.000000 0.134986 0.000000 0.000000 0.005612 0.000000 0.000000 0.000000 0.000000 0.000000 0.138047 0.000000 0.000000 0.000000 0.053872 0.000000 0.000000 0.000000 0.000000 0.000000 0.012579 0.031447 0.025157 0.044077 0.000000 0.000000 0.000000 0.000000 0.000000 0.000000 0.000000 0.000000 0.108866 0.017957 0.004489 0.000000 0.000000 0.012579 0.012579 0.018868 0.025157 0.044025 0.006289 0.044025 0.037736 0.239669 0.037037 0.000000 0.000000 0.000000 0.000000 0.005612 0.000000 0.000000 0.094276 0.000000 0.006734 0.007856 0.032548 0.012579 0.031447 0.050314 0.018868 0.006289 0.012579 0.062893 0.018868 0.165289 0.000000 0.000000 0.000000 0.000000 0.000000 0.000000 0.000000 0.000000 0.049383 0.000000 0.136925 0.000000 0.000000 0.012579 0.037736 0.025157 0.000000 0.006289 0.062893 0.037736 0.000000 0.198347 5
0.000000 0.000000 0.000000 0.000000 0.000000 0.000000 0.000000 0.000000 0.000000 0.000000 0.000000 0.000000 0.201074 0.004808 0.019231 0.019231 0.000000 0.000000 0.004808 0.004808 0.000000 0.063618 0.000000 0.014582 0.000000 0.001535 0.038373 0.000000 0.035303 0.000000 0.000000 0.012279 0.000000 0.000000 0.046048 0.004808 0.043269 0.067308 0.024038 0.014423 0.057692 0.043269 0.019231 0.228628 0.000000 0.000000 0.000000 0.000000 0.098235 0.000000 0.000000 0.000000 0.000000 0.000000 0.000000 0.000000 0.054490 0.019231 0.048077 0.009615 0.000000 0.009615 0.057692 0.009615 0.000000 0.188867 0.000000 0.026861 0.000000 0.000000 0.123561 0.000000 0.000000 0.000000 0.000000 0.000000 0.030698 0.000000 0.000000 0.033654 0.033654 0.000000 0.000000 0.033654 0.033654 0.000000 0.000000 0.143141 0.000000 0.000000 0.000000 0.000000 0.102072 0.000000 0.000000 0.000000 0.000000 0.000000 0.010744 0.014582 0.000000 0.043269 0.014423 0.057692 0.019231 0.019231 0.014423 0.067308 0.019231 0.254473 0.000000 0.000000 0.000000 0.000000 0.030698 0.000000 0.000000 0.000000 0.000000 0.000000 0.158864 0.000000 0.000000 0.004808 0.033654 0.014423 0.000000 0.004808 0.048077 0.024038 0.000000 0.121272 0
0.000000 0.000000 0.000000 0.000000 0.000000 0.000000 0.000000 0.000000 0.002281 0.000000 0.000000 0.000000 0.206464 0.021739 0.013043 0.000000 0.000000 0.000000 0.000000 0.000000 0.008696 0.024706 0.000000 0.000000 0.043726 0.000000 0.026616 0.000000 0.000000 0.000000 0.008365 0.015209 0.000380 0.000000 0.011407 0.034783 0.034783 0.078261 0.026087 0.056522 0.052174 0.047826 0.017391 0.343529 0.000000 0.000000 0.000000 0.000000 0.005323 0.000000 0.000000 0.000000 0.014829 0.000000 0.000000 0.000000 0.171863 0.000000 0.021739 0.052174 0.000000 0.000000 0.000000 0.000000 0.000000 0.076471 0.002662 0.000000 0.000000 0.000000 0.002662 0.000000 0.005703 0.000000 0.085171 0.000000 0.059316 0.000000 0.000000 0.017391 0.052174 0.034783 0.013043 0.026087 0.052174 0.013043 0.000000 0.189412 0.000000 0.000000 0.000000 0.000000 0.087452 0.000000 0.000000 0.000000 0.000000 0.000000 0.032319 0.004943 0.015209 0.034783 0.034783 0.021739 0.000000 0.004348 0.039130 0.069565 0.017391 0.272941 0.000000 0.000000 0.000000 0.000000 0.003042 0.000000 0.003422 0.008365 0.000000 0.000000 0.183270 0.000000 0.000000 0.004348 0.000000 0.000000 0.013043 0.008696 0.034783 0.030435 0.013043 0.092941 2
0.000000 0.000000 0.033083 0.000000 0.000000 0.000000 0.000000 0.000000 0.051128 0.000000 0.000000 0.006767 0.064662 0.013043 0.030435 0.052174 0.000000 0.000000 0.021739 0.047826 0.008696 0.166189 0.000000 0.000000 0.015789 0.000000 0.000000 0.000000 0.003008 0.000000 0.010526 0.137594 0.000000 0.000000 0.001504 0.013043 0.017391 0.021739 0.021739 0.039130 0.017391 0.008696 0.013043 0.166189 0.000000 0.000000 0.009774 0.000000 0.000000 0.000000 0.000000 0.000000 0.146617 0.000000 0.000000 0.025564 0.000000 0.008696 0.030435 0.030435 0.000000 0.000000 0.008696 0.043478 0.004348 0.116046 0.000000 0.000000 0.005263 0.000000 0.000000 0.000000 0.024060 0.000000 0.042857 0.072932 0.000000 0.000000 0.000000 0.000000 0.008696 0.026087 0.039130 0.021739 0.013043 0.039130 0.030435 0.210602 0.050376 0.000000 0.000000 0.000000 0.000000 0.000000 0.000000 0.000000 0.093233 0.000000 0.003759 0.030827 0.000000 0.026087 0.021739 0.043478 0.008696 0.017391 0.008696 0.052174 0.008696 0.150430 0.011278 0.000000 0.000000 0.000000 0.000000 0.000000 0.000000 0.000000 0.065414 0.000000 0.093985 0.000000 0.000000 0.013043 0.034783 0.026087 0.000000 0.021739 0.043478 0.043478 0.000000 0.190544 3
0.000000 0.028757 0.000000 0.000000 0.000000 0.005969 0.000000 0.000000 0.000000 0.000000 0.000000 0.000000 0.137819 0.000000 0.048544 0.033981 0.000000 0.014563 0.038835 0.019417 0.000000 0.135537 0.000000 0.000000 0.000000 0.000000 0.000000 0.080846 0.000000 0.000000 0.000000 0.000000 0.039067 0.000000 0.053717 0.019417 0.053398 0.019417 0.000000 0.029126 0.048544 0.000000 0.000000 0.158678 0.000000 0.075963 0.004341 0.000000 0.000543 0.004883 0.000000 0.000000 0.004883 0.000000 0.000000 0.015193 0.010309 0.033981 0.029126 0.087379 0.009709 0.014563 0.029126 0.087379 0.024272 0.307438 0.000000 0.002170 0.000000 0.000000 0.000000 0.029300 0.009767 0.000000 0.000000 0.000000 0.106891 0.000000 0.000000 0.009709 0.043689 0.024272 0.004854 0.024272 0.053398 0.029126 0.000000 0.236364 0.000000 0.000000 0.000000 0.000000 0.000000 0.000000 0.000000 0.000000 0.028757 0.000000 0.019533 0.122626 0.000000 0.029126 0.043689 0.000000 0.000000 0.019417 0.029126 0.014563 0.004854 0.140496 0.000000 0.000000 0.000000 0.000000 0.000000 0.000000 0.000000 0.000000 0.000000 0.000000 0.218665 0.000000 0.000000 0.000000 0.000000 0.000000 0.000000 0.009709 0.014563 0.004854 0.000000 0.021488 4
0.000000 0.000000 0.049483 0.000000 0.000000 0.000000 0.000000 0.000000 0.000000 0.000000 0.000000 0.000000 0.094535 0.012048 0.072289 0.036145 0.006024 0.000000 0.060241 0.018072 0.000000 0.199620 0.000000 0.000000 0.013294 0.000000 0.049483 0.009601 0.000000 0.000000 0.000000 0.000739 0.027326 0.000000 0.000000 0.012048 0.042169 0.102410 0.006024 0.036145 0.054217 0.060241 0.012048 0.311787 0.000000 0.000000 0.042097 0.000000 0.000000 0.000000 0.000000 0.000000 0.113737 0.000000 0.000000 0.026588 0.000000 0.012048 0.048193 0.000000 0.000000 0.006024 0.012048 0.012048 0.012048 0.100760 0.000000 0.000000 0.005908 0.000000 0.005908 0.000000 0.000000 0.000000 0.002216 0.000000 0.149926 0.000000 0.000000 0.006024 0.036145 0.000000 0.000000 0.030120 0.060241 0.012048 0.000000 0.148289 0.000000 0.000000 0.000000 0.000000 0.000000 0.000000 0.000000 0.000000 0.036928 0.000000 0.081979 0.039143 0.000000 0.036145 0.060241 0.000000 0.000000 0.030120 0.066265 0.024096 0.006024 0.239544 0.000000 0.000000 0.000000 0.000000 0.000000 0.000000 0.000000 0.000000 0.000000 0.000000 0.251108 0.000000 0.000000 0.000000 0.000000 0.000000 0.000000 0.000000 0.000000 0.000000 0.000000 0.000000 7
0.000000 0.000000 0.000000 0.000000 0.000000 0.000000 0.000000 0.000000 0.000000 0.000000 0.000000 0.000000 0.189329 0.000000 0.000000 0.000000 0.000000 0.000000 0.000000 0.000000 0.000000 0.000000 0.000000 0.000000 0.000000 0.000000 0.000000 0.000000 0.000000 0.000000 0.000000 0.000000 0.029834 0.000000 0.104418 0.026316 0.096491 0.043860 0.000000 0.043860 0.087719 0.000000 0.000000 0.295385 0.000000 0.000000 0.000000 0.000000 0.000000 0.000000 0.000000 0.000000 0.000000 0.000000 0.002295 0.000000 0.157200 0.035088 0.052632 0.026316 0.000000 0.008772 0.017544 0.008772 0.000000 0.160000 0.000000 0.000000 0.000000 0.000000 0.000000 0.000000 0.000000 0.000000 0.000000 0.000000 0.145726 0.000000 0.005164 0.017544 0.026316 0.017544 0.000000 0.017544 0.087719 0.017544 0.000000 0.206154 0.000000 0.000000 0.000000 0.000000 0.000000 0.000000 0.000000 0.000000 0.000000 0.000000 0.106139 0.000574 0.044750 0.061404 0.078947 0.035088 0.000000 0.035088 0.105263 0.043860 0.008772 0.338462 0.000000 0.000000 0.000000 0.000000 0.000000 0.000000 0.000000 0.000000 0.000000 0.000000 0.214573 0.000000 0.000000 0.000000 0.000000 0.000000 0.000000 0.000000 0.000000 0.000000 0.000000 0.000000 1
0.000000 0.000000 0.000000 0.000000 0.000000 0.000000 0.000000 0.000000 0.000000 0.000000 0.000000 0.000000 0.214934 0.000000 0.024038 0.000000 0.000000 0.000000 0.000000 0.000000 0.000000 0.027624 0.000000 0.000000 0.000000 0.000000 0.000000 0.000000 0.084438 0.000000 0.000000 0.035590 0.000000 0.000000 0.043266 0.019231 0.033654 0.038462 0.000000 0.014423 0.067308 0.004808 0.000000 0.163904 0.000000 0.029309 0.000000 0.000000 0.011863 0.000000 0.017446 0.000000 0.000000 0.000000 0.000000 0.000000 0.094208 0.024038 0.057692 0.000000 0.000000 0.024038 0.052885 0.000000 0.000000 0.191529 0.000000 0.040475 0.000000 0.000000 0.002791 0.000000 0.110258 0.000000 0.000000 0.022331 0.000000 0.000000 0.000000 0.000000 0.028846 0.028846 0.004808 0.033654 0.009615 0.014423 0.004808 0.130755 0.000000 0.053733 0.000000 0.000000 0.062805 0.000000 0.000000 0.000000 0.000000 0.000000 0.001396 0.015352 0.004187 0.052885 0.014423 0.052885 0.014423 0.033654 0.019231 0.057692 0.024038 0.267035 0.000000 0.018144 0.000000 0.000000 0.037683 0.000000 0.000000 0.000000 0.000000 0.000000 0.099791 0.000000 0.000000 0.033654 0.052885 0.024038 0.000000 0.014423 0.081731 0.038462 0.000000 0.219153 6
0.000000 0.011572 0.000000 0.000000 0.012536 0.000000 0.004339 0.000000 0.000000 0.000000 0.000000 0.000000 0.140791 0.004049 0.048583 0.024291 0.000000 0.004049 0.036437 0.016194 0.000000 0.141732 0.000000 0.044841 0.000000 0.016393 0.001929 0.000000 0.054002 0.000000 0.000000 0.003375 0.008197 0.000000 0.026037 0.016194 0.052632 0.044534 0.020243 0.020243 0.052632 0.040486 0.004049 0.222047 0.000000 0.015911 0.005304 0.000000 0.043394 0.000000 0.000000 0.000000 0.059788 0.000000 0.000000 0.026519 0.002893 0.032389 0.024291 0.052632 0.012146 0.016194 0.020243 0.048583 0.024291 0.192126 0.000000 0.032305 0.001929 0.000000 0.000482 0.000000 0.000000 0.000000 0.002411 0.000000 0.110415 0.000000 0.000000 0.016194 0.036437 0.028340 0.000000 0.020243 0.068826 0.008097 0.008097 0.245669 0.000000 0.000000 0.000000 0.000000 0.000000 0.000000 0.000000 0.000000 0.055931 0.000000 0.049180 0.050627 0.000000 0.040486 0.044534 0.012146 0.000000 0.024291 0.040486 0.020243 0.000000 0.185827 0.000000 0.000000 0.000000 0.000000 0.000000 0.000000 0.000000 0.000000 0.000000 0.000000 0.218901 0.000000 0.000000 0.000000 0.000000 0.000000 0.000000 0.004049 0.012146 0.000000 0.000000 0.012598 9
0.000000 0.000000 0.000000 0.000000 0.000000 0.000000 0.000000 0.000000 0.000000 0.000000 0.000000 0.000000 0.206956 0.004367 0.004367 0.004367 0.000000 0.000000 0.000000 0.000000 0.000000 0.009107 0.000000 0.025656 0.000000 0.000000 0.034208 0.006271 0.000000 0.000000 0.000000 0.008552 0.005701 0.000000 0.053592 0.061135 0.056769 0.030568 0.013100 0.052402 0.069869 0.004367 0.000000 0.271403 0.000000 0.000000 0.000000 0.000000 0.041049 0.000000 0.000000 0.000000 0.000000 0.000000 0.000000 0.000000 0.118586 0.013100 0.056769 0.004367 0.000000 0.021834 0.039301 0.008734 0.000000 0.160291 0.000000 0.000000 0.000000 0.000000 0.114595 0.000000 0.000000 0.000000 0.000000 0.000000 0.059293 0.000000 0.000000 0.030568 0.039301 0.004367 0.000000 0.030568 0.048035 0.008734 0.000000 0.143898 0.000000 0.000000 0.000000 0.000000 0.079247 0.000000 0.000000 0.000000 0.000000 0.000000 0.019954 0.002281 0.023375 0.034934 0.056769 0.048035 0.004367 0.021834 0.048035 0.065502 0.008734 0.313297 0.000000 0.000000 0.000000 0.000000 0.013683 0.000000 0.000000 0.000000 0.000000 0.000000 0.187001 0.000000 0.000000 0.008734 0.021834 0.008734 0.000000 0.013100 0.034934 0.017467 0.000000 0.102004 0
0.000000 0.027115 0.000000 0.023861 0.001085 0.000542 0.013015 0.000000 0.000000 0.000000 0.000000 0.000000 0.094360 0.033654 0.038462 0.038462 0.009615 0.024038 0.033654 0.028846 0.000000 0.173358 0.000000 0.018438 0.000000 0.016811 0.001627 0.007050 0.013015 0.000000 0.000000 0.098698 0.004881 0.000000 0.000000 0.014423 0.024038 0.105769 0.014423 0.019231 0.028846 0.052885 0.009615 0.171533 0.000000 0.023319 0.000000 0.000000 0.000000 0.000000 0.001085 0.000000 0.004881 0.000000 0.031453 0.000000 0.071584 0.043269 0.038462 0.033654 0.014423 0.033654 0.024038 0.019231 0.009615 0.266423 0.000000 0.000542 0.000000 0.000000 0.000000 0.000000 0.000000 0.000000 0.000000 0.000000 0.181670 0.000000 0.000000 0.000000 0.009615 0.014423 0.000000 0.000000 0.024038 0.062500 0.000000 0.098540 0.000000 0.000000 0.000000 0.000000 0.029284 0.000000 0.000000 0.000000 0.000000 0.000000 0.086226 0.001627 0.022234 0.033654 0.033654 0.000000 0.000000 0.048077 0.024038 0.048077 0.009615 0.290146 0.000000 0.000000 0.000000 0.000000 0.000000 0.000000 0.000000 0.000000 0.000000 0.000000 0.225597 0.000000 0.000000 0.000000 0.000000 0.000000 0.000000 0.000000 0.000000 0.000000 0.000000 0.000000 8
0.000000 0.000000 0.000000 0.000000 0.000000 0.005353 0.018005 0.000487 0.000000 0.000000 0.018005 0.000000 0.122141 0.015385 0.056410 0.041026 0.005128 0.025641 0.035897 0.025641 0.005128 0.161468 0.000000 0.000000 0.000000 0.000000 0.000000 0.000000 0.000000 0.002433 0.000000 0.000000 0.118248 0.000000 0.023358 0.000000 0.025641 0.097436 0.000000 0.020513 0.025641 0.097436 0.005128 0.236697 0.000000 0.000000 0.000000 0.000000 0.000000 0.000000 0.047689 0.000000 0.033090 0.000000 0.041363 0.000000 0.005839 0.030769 0.020513 0.025641 0.041026 0.030769 0.015385 0.035897 0.035897 0.297248 0.000000 0.000000 0.000000 0.000000 0.000000 0.000000 0.000000 0.000000 0.000000 0.000000 0.206813 0.000000 0.000000 0.000000 0.000000 0.000000 0.000000 0.000000 0.000000 0.000000 0.000000 0.000000 0.017518 0.000000 0.000000 0.000000 0.000000 0.000000 0.000000 0.000000 0.043796 0.000000 0.071046 0.005839 0.000000 0.061538 0.035897 0.010256 0.025641 0.046154 0.046154 0.030769 0.025641 0.304587 0.000000 0.000000 0.000000 0.000000 0.000000 0.000000 0.000000 0.000000 0.000000 0.000000 0.218978 0.000000 0.000000 0.000000 0.000000 0.000000 0.000000 0.000000 0.000000 0.000000 0.000000 0.000000 5
0.000000 0.000000 0.045475 0.000000 0.000000 0.000000 0.000000 0.000000 0.000000 0.000000 0.000000 0.000000 0.115962 0.008475 0.050847 0.042373 0.000000 0.008475 0.038136 0.033898 0.000000 0.153846 0.000000 0.000000 0.000000 0.000000 0.016371 0.000000 0.001364 0.000000 0.000000 0.156435 0.000000 0.000000 0.000000 0.029661 0.004237 0.016949 0.016949 0.038136 0.012712 0.004237 0.012712 0.114685 0.000910 0.000000 0.032742 0.000000 0.000000 0.000000 0.000000 0.000000 0.073215 0.000000 0.000000 0.000000 0.054570 0.012712 0.046610 0.038136 0.012712 0.004237 0.008475 0.008475 0.004237 0.153846 0.000000 0.000000 0.000000 0.000000 0.002274 0.000000 0.034106 0.000000 0.000000 0.150068 0.000000 0.000000 0.000000 0.012712 0.012712 0.004237 0.008475 0.025424 0.025424 0.004237 0.000000 0.076923 0.000000 0.000000 0.000000 0.000000 0.032287 0.000000 0.000000 0.021373 0.000455 0.000000 0.057754 0.000000 0.025011 0.029661 0.042373 0.000000 0.000000 0.004237 0.059322 0.063559 0.004237 0.316084 0.000000 0.000000 0.000000 0.000000 0.000000 0.000455 0.002274 0.015916 0.000000 0.046385 0.114598 0.000000 0.000000 0.000000 0.004237 0.080508 0.029661 0.004237 0.004237 0.101695 0.025424 0.184615 2
0.000000 0.000000 0.000000 0.000000 0.000000 0.000000 0.000000 0.000000 0.000000 0.000000 0.000000 0.000000 0.213896 0.011364 0.003788 0.000000 0.000000 0.000000 0.000000 0.000000 0.000000 0.005674 0.000000 0.000000 0.020436 0.000000 0.024069 0.000000 0.000000 0.000000 0.000000 0.009083 0.002725 0.000000 0.058583 0.018939 0.064394 0.037879 0.007576 0.060606 0.045455 0.030303 0.007576 0.341844 0.000000 0.000000 0.000000 0.000000 0.000000 0.000000 0.000000 0.000000 0.023161 0.000000 0.000000 0.000000 0.179837 0.011364 0.007576 0.015152 0.000000 0.000000 0.000000 0.015152 0.003788 0.039716 0.000000 0.000000 0.016803 0.000000 0.000908 0.000000 0.013624 0.000000 0.079019 0.000000 0.025886 0.000000 0.000000 0.018939 0.030303 0.045455 0.015152 0.034091 0.030303 0.064394 0.011364 0.275177 0.016803 0.003179 0.000000 0.000000 0.000000 0.052225 0.000000 0.000000 0.019074 0.000000 0.002271 0.004087 0.062216 0.022727 0.026515 0.060606 0.015152 0.015152 0.015152 0.071970 0.011364 0.174468 0.014532 0.000000 0.000000 0.000000 0.000000 0.000000 0.000000 0.000000 0.046322 0.000000 0.111262 0.000000 0.000000 0.007576 0.041667 0.022727 0.000000 0.011364 0.049242 0.037879 0.000000 0.163121 3
0.000000 0.000000 0.039518 0.000000 0.000000 0.000000 0.000000 0.000000 0.048895 0.000000 0.000000 0.000000 0.059612 0.018072 0.036145 0.072289 0.000000 0.000000 0.036145 0.060241 0.006024 0.195426 0.000000 0.000000 0.034829 0.000000 0.008707 0.000000 0.000000 0.000000 0.017415 0.007368 0.034829 0.000000 0.000000 0.018072 0.036145 0.108434 0.012048 0.030120 0.054217 0.060241 0.012048 0.334719 0.000000 0.000000 0.000000 0.000000 0.000000 0.000000 0.000000 0.000000 0.150703 0.000000 0.000670 0.000000 0.030141 0.000000 0.054217 0.000000 0.000000 0.006024 0.012048 0.006024 0.000000 0.091476 0.000000 0.000000 0.000000 0.000000 0.000000 0.000000 0.000000 0.000000 0.008038 0.000000 0.158071 0.000000 0.000000 0.012048 0.024096 0.006024 0.000000 0.012048 0.060241 0.012048 0.000000 0.139293 0.000000 0.000000 0.000000 0.000000 0.000000 0.000000 0.000000 0.000000 0.023443 0.000000 0.115874 0.000670 0.022103 0.030120 0.066265 0.006024 0.000000 0.030120 0.066265 0.030120 0.006024 0.239085 0.000000 0.000000 0.000000 0.000000 0.000000 0.000000 0.000000 0.000000 0.000000 0.000000 0.239116 0.000000 0.000000 0.000000 0.000000 0.000000 0.000000 0.000000 0.000000 0.000000 0.000000 0.000000 7
0.000000 0.000000 0.000000 0.000000 0.000000 0.000000 0.000000 0.000000 0.000000 0.000000 0.000000 0.000000 0.194360 0.000000 0.000000 0.000000 0.000000 0.000000 0.000000 0.000000 0.000000 0.000000 0.000000 0.000000 0.000000 0.000000 0.000000 0.000000 0.000000 0.000000 0.000000 0.003811 0.025915 0.000000 0.107470 0.060606 0.080808 0.030303 0.020202 0.070707 0.060606 0.010101 0.000000 0.302013 0.000000 0.000000 0.000000 0.000000 0.000000 0.000000 0.000000 0.000000 0.000000 0.000000 0.000762 0.000000 0.159299 0.020202 0.080808 0.000000 0.000000 0.000000 0.020202 0.000000 0.000000 0.151007 0.000000 0.000000 0.000000 0.000000 0.000000 0.000000 0.000000 0.000000 0.000000 0.000000 0.148628 0.000000 0.007622 0.010101 0.040404 0.000000 0.000000 0.030303 0.101010 0.010101 0.000000 0.218121 0.000000 0.000000 0.000000 0.000000 0.000000 0.000000 0.000000 0.000000 0.000000 0.000000 0.096799 0.000000 0.035823 0.070707 0.090909 0.000000 0.000000 0.050505 0.101010 0.040404 0.000000 0.328859 0.000000 0.000000 0.000000 0.000000 0.000000 0.000000 0.000000 0.000000 0.000000 0.000000 0.219512 0.000000 0.000000 0.000000 0.000000 0.000000 0.000000 0.000000 0.000000 0.000000 0.000000 0.000000 1
0.000000 0.002451 0.000000 0.000000 0.000000 0.000000 0.000000 0.000000 0.000000 0.000000 0.000000 0.000000 0.176821 0.012876 0.030043 0.012876 0.000000 0.004292 0.017167 0.000000 0.000000 0.078025 0.000000 0.012605 0.000000 0.000000 0.000000 0.089636 0.000000 0.000000 0.000000 0.020658 0.030812 0.000000 0.002451 0.034335 0.051502 0.034335 0.004292 0.042918 0.068670 0.008584 0.000000 0.210191 0.000000 0.025910 0.011204 0.000000 0.000000 0.000000 0.000000 0.019958 0.000000 0.000000 0.000000 0.000000 0.065826 0.012876 0.060086 0.064378 0.021459 0.012876 0.047210 0.085837 0.012876 0.334395 0.000000 0.021008 0.000700 0.000000 0.002101 0.022759 0.000000 0.000000 0.000000 0.000000 0.114496 0.000000 0.000000 0.012876 0.051502 0.012876 0.004292 0.021459 0.051502 0.008584 0.008584 0.187898 0.000000 0.000000 0.007003 0.000000 0.000000 0.000000 0.000000 0.013305 0.021709 0.000000 0.009104 0.129902 0.000000 0.030043 0.038627 0.004292 0.000000 0.008584 0.030043 0.017167 0.008584 0.122611 0.000000 0.000000 0.000350 0.000000 0.000000 0.000000 0.000000 0.000000 0.000000 0.000000 0.199230 0.000000 0.000000 0.000000 0.008584 0.000000 0.000000 0.008584 0.030043 0.004292 0.000000 0.066879 4
0.000000 0.000000 0.000000 0.000000 0.000000 0.000000 0.000000 0.000000 0.000000 0.000000 0.000000 0.000000 0.225296 0.000000 0.020833 0.000000 0.000000 0.000000 0.000000 0.000000 0.000000 0.015674 0.000000 0.000000 0.000000 0.000000 0.000000 0.000000 0.074440 0.000000 0.000000 0.000659 0.016469 0.000000 0.068511 0.000000 0.057292 0.046875 0.005208 0.020833 0.057292 0.046875 0.000000 0.170846 0.000000 0.027009 0.000000 0.000000 0.013834 0.000000 0.013834 0.000000 0.000000 0.000000 0.000000 0.000000 0.106061 0.015625 0.067708 0.010417 0.000000 0.020833 0.052083 0.010417 0.000000 0.169279 0.000000 0.026350 0.000000 0.000000 0.006588 0.000000 0.121871 0.000000 0.000000 0.000000 0.021080 0.000000 0.000000 0.000000 0.031250 0.052083 0.015625 0.015625 0.015625 0.000000 0.000000 0.133229 0.000000 0.003294 0.000000 0.000000 0.063900 0.000000 0.000000 0.000000 0.000000 0.000000 0.009881 0.012516 0.009223 0.062500 0.067708 0.031250 0.005208 0.036458 0.026042 0.083333 0.020833 0.351097 0.000000 0.000000 0.000000 0.000000 0.043478 0.000000 0.000000 0.000000 0.000000 0.000000 0.135705 0.000000 0.000000 0.000000 0.000000 0.000000 0.000000 0.005208 0.067708 0.031250 0.000000 0.159875 6
0.000000 0.006104 0.000000 0.000000 0.006104 0.000000 0.002543 0.000000 0.000000 0.000000 0.000000 0.000000 0.165310 0.000000 0.046218 0.012605 0.000000 0.008403 0.021008 0.012605 0.000000 0.103448 0.000000 0.030010 0.000000 0.018820 0.001526 0.000000 0.062055 0.000000 0.000000 0.002543 0.000509 0.000000 0.028484 0.012605 0.046218 0.058824 0.012605 0.025210 0.054622 0.037815 0.008403 0.214734 0.000000 0.014242 0.003561 0.000000 0.050865 0.000000 0.000000 0.000000 0.053408 0.000000 0.000000 0.000000 0.020855 0.025210 0.050420 0.046218 0.004202 0.021008 0.029412 0.058824 0.016807 0.217868 0.000000 0.029502 0.000000 0.000000 0.003052 0.000000 0.000000 0.000000 0.000000 0.000000 0.101729 0.000000 0.000000 0.004202 0.046218 0.021008 0.000000 0.021008 0.067227 0.016807 0.004202 0.244514 0.000000 0.000000 0.000000 0.000000 0.000000 0.000000 0.000000 0.000000 0.076806 0.000000 0.079349 0.000000 0.009664 0.029412 0.063025 0.012605 0.000000 0.008403 0.067227 0.016807 0.000000 0.213166 0.000000 0.000000 0.000000 0.000000 0.000000 0.000000 0.000000 0.000000 0.000000 0.000000 0.232960 0.000000 0.000000 0.000000 0.000000 0.000000 0.000000 0.004202 0.008403 0.000000 0.000000 0.006270 9
0.000000 0.000000 0.000000 0.000000 0.000000 0.000000 0.000000 0.000000 0.000000 0.000000 0.000000 0.000000 0.201784 0.011696 0.023392 0.011696 0.000000 0.000000 0.005848 0.000000 0.000000 0.058228 0.000000 0.050167 0.000000 0.000000 0.000000 0.046823 0.000000 0.000000 0.000000 0.000000 0.020067 0.000000 0.016722 0.035088 0.058480 0.023392 0.000000 0.081871 0.052632 0.011696 0.000000 0.212658 0.000000 0.000000 0.000000 0.000000 0.076923 0.000000 0.000000 0.000000 0.000000 0.000000 0.000000 0.000000 0.074693 0.017544 0.052632 0.005848 0.000000 0.029240 0.040936 0.011696 0.000000 0.172152 0.000000 0.000000 0.000000 0.000000 0.078038 0.000000 0.000000 0.000000 0.000000 0.000000 0.076923 0.000000 0.000000 0.035088 0.035088 0.005848 0.000000 0.040936 0.029240 0.005848 0.000000 0.164557 0.000000 0.000000 0.000000 0.000000 0.107023 0.000000 0.000000 0.000000 0.000000 0.000000 0.010033 0.012263 0.005574 0.064327 0.035088 0.035088 0.017544 0.023392 0.035088 0.058480 0.017544 0.296203 0.000000 0.000000 0.000000 0.000000 0.005574 0.000000 0.000000 0.000000 0.000000 0.000000 0.217391 0.000000 0.000000 0.017544 0.011696 0.000000 0.000000 0.011696 0.046784 0.000000 0.000000 0.096203 0
0.000000 0.003019 0.000000 0.000000 0.044082 0.000000 0.000000 0.000000 0.000000 0.000000 0.000000 0.000000 0.121377 0.032432 0.043243 0.032432 0.005405 0.027027 0.032432 0.016216 0.000000 0.148829 0.000000 0.007850 0.000000 0.000000 0.030193 0.015097 0.000000 0.000000 0.000000 0.033816 0.047101 0.000000 0.000604 0.010811 0.064865 0.091892 0.010811 0.021622 0.070270 0.064865 0.005405 0.242475 0.000000 0.000000 0.000000 0.000000 0.011473 0.000000 0.005435 0.000000 0.014493 0.000000 0.012681 0.000000 0.081522 0.043243 0.048649 0.021622 0.021622 0.037838 0.021622 0.000000 0.016216 0.267559 0.000000 0.000000 0.000000 0.000000 0.000000 0.000000 0.000000 0.000000 0.000000 0.000000 0.211353 0.000000 0.000000 0.000000 0.000000 0.000000 0.000000 0.000000 0.021622 0.016216 0.000000 0.030100 0.000000 0.000000 0.000000 0.000000 0.050121 0.000000 0.000000 0.000000 0.000000 0.000000 0.052536 0.007246 0.013889 0.037838 0.032432 0.000000 0.000000 0.043243 0.043243 0.043243 0.021622 0.311037 0.000000 0.000000 0.000000 0.000000 0.000000 0.000000 0.000000 0.000000 0.000000 0.000000 0.236111 0.000000 0.000000 0.000000 0.000000 0.000000 0.000000 0.000000 0.000000 0.000000 0.000000 0.000000 8
0.000000 0.000000 0.000000 0.000000 0.000000 0.000000 0.000000 0.000000 0.000000 0.000000 0.000000 0.000000 0.192417 0.013072 0.019608 0.019608 0.000000 0.000000 0.006536 0.000000 0.000000 0.057692 0.000000 0.000000 0.000000 0.000000 0.000000 0.000000 0.069194 0.000000 0.000000 0.001896 0.019905 0.000000 0.054976 0.000000 0.052288 0.045752 0.006536 0.006536 0.071895 0.039216 0.000000 0.230769 0.000000 0.000000 0.000000 0.000000 0.000000 0.000000 0.001896 0.000000 0.054976 0.000000 0.000000 0.000000 0.119431 0.026144 0.006536 0.006536 0.006536 0.006536 0.000000 0.032680 0.006536 0.104396 0.000000 0.002844 0.000000 0.000000 0.000000 0.000000 0.048341 0.000000 0.061611 0.000000 0.028436 0.000000 0.000000 0.019608 0.013072 0.052288 0.032680 0.045752 0.006536 0.045752 0.026144 0.244505 0.000000 0.000000 0.000000 0.000000 0.000000 0.002844 0.000000 0.000000 0.065403 0.000000 0.006635 0.005687 0.093839 0.000000 0.026144 0.071895 0.006536 0.000000 0.013072 0.065359 0.019608 0.153846 0.000000 0.000000 0.000000 0.000000 0.000000 0.000000 0.000000 0.000000 0.037915 0.000000 0.131754 0.000000 0.000000 0.013072 0.045752 0.013072 0.000000 0.019608 0.058824 0.032680 0.000000 0.208791 5
0.000000 0.000000 0.000000 0.000000 0.000000 0.000000 0.000000 0.000000 0.000000 0.000000 0.000000 0.000000 0.215713 0.008621 0.025862 0.012931 0.000000 0.000000 0.000000 0.000000 0.000000 0.062087 0.000000 0.000000 0.000000 0.000000 0.053067 0.002757 0.004824 0.000000 0.000000 0.053756 0.000000 0.000000 0.013094 0.021552 0.043103 0.038793 0.012931 0.051724 0.051724 0.021552 0.008621 0.231176 0.000000 0.000000 0.044108 0.000000 0.000000 0.000000 0.000000 0.000000 0.030324 0.000000 0.000000 0.000000 0.103377 0.025862 0.030172 0.004310 0.000000 0.008621 0.038793 0.017241 0.004310 0.134742 0.000000 0.008959 0.000000 0.000000 0.050999 0.002068 0.066850 0.000000 0.000000 0.048932 0.000000 0.000000 0.000000 0.017241 0.038793 0.008621 0.004310 0.017241 0.047414 0.004310 0.000000 0.134742 0.000000 0.000000 0.000000 0.000000 0.005513 0.000000 0.000000 0.003446 0.017919 0.000000 0.045486 0.000689 0.044797 0.012931 0.051724 0.043103 0.000000 0.000000 0.030172 0.064655 0.004310 0.281374 0.000000 0.034459 0.000000 0.000000 0.017919 0.000000 0.000000 0.000689 0.000000 0.000000 0.130255 0.000000 0.000000 0.004310 0.025862 0.060345 0.008621 0.012931 0.043103 0.068966 0.004310 0.155878 2
0.000000 0.000000 0.008314 0.000000 0.000000 0.000000 0.000000 0.000000 0.024941 0.000000 0.000000 0.000000 0.147268 0.010830 0.014440 0.036101 0.000000 0.000000 0.010830 0.036101 0.000000 0.106607 0.000000 0.000000 0.032067 0.000000 0.001781 0.000000 0.002375 0.000000 0.027316 0.059976 0.000000 0.000000 0.015439 0.018051 0.014440 0.054152 0.021661 0.021661 0.014440 0.054152 0.007220 0.211712 0.000000 0.000000 0.005344 0.000000 0.000000 0.000000 0.000000 0.000000 0.092043 0.000000 0.000000 0.000000 0.097981 0.007220 0.018051 0.021661 0.000000 0.000000 0.007220 0.028881 0.000000 0.069069 0.000000 0.000000 0.034442 0.000000 0.000000 0.000000 0.033848 0.000000 0.039786 0.013658 0.000000 0.000000 0.000000 0.007220 0.025271 0.054152 0.018051 0.018051 0.025271 0.068592 0.010830 0.255255 0.027316 0.001188 0.000000 0.000000 0.000000 0.014846 0.000000 0.000000 0.066508 0.000000 0.008314 0.002375 0.058789 0.010830 0.021661 0.068592 0.003610 0.010830 0.014440 0.068592 0.007220 0.184685 0.002969 0.000000 0.000000 0.000000 0.000000 0.000000 0.000000 0.000000 0.067696 0.000000 0.113420 0.000000 0.000000 0.000000 0.039711 0.032491 0.000000 0.007220 0.039711 0.050542 0.000000 0.172673 3
0.000000 0.000000 0.030627 0.000000 0.000000 0.000000 0.000000 0.000000 0.000000 0.000000 0.000000 0.000000 0.113960 0.017442 0.052326 0.040698 0.005814 0.005814 0.040698 0.017442 0.005814 0.197740 0.000000 0.000000 0.003561 0.000000 0.030627 0.038462 0.000000 0.000000 0.000000 0.000000 0.026353 0.000000 0.012821 0.011628 0.040698 0.087209 0.017442 0.040698 0.046512 0.058140 0.017442 0.310734 0.000000 0.000000 0.074786 0.000000 0.000000 0.000000 0.000000 0.004986 0.054131 0.000000 0.000000 0.034900 0.009972 0.017442 0.040698 0.011628 0.000000 0.011628 0.029070 0.023256 0.005814 0.107345 0.000000 0.000000 0.009972 0.000000 0.019231 0.000000 0.000000 0.000000 0.001425 0.000000 0.131054 0.000000 0.000000 0.017442 0.046512 0.005814 0.000000 0.023256 0.058140 0.005814 0.000000 0.178908 0.000000 0.000000 0.000000 0.000000 0.000000 0.000000 0.000000 0.000000 0.039886 0.000000 0.038462 0.085470 0.000000 0.029070 0.058140 0.000000 0.000000 0.005814 0.052326 0.023256 0.000000 0.188324 0.000000 0.000000 0.000000 0.000000 0.000000 0.000000 0.000000 0.000000 0.000000 0.000000 0.239316 0.000000 0.000000 0.000000 0.000000 0.000000 0.000000 0.005814 0.017442 0.005814 0.000000 0.016949 7
0.000000 0.000000 0.000000 0.000000 0.000000 0.000000 0.000000 0.000000 0.000000 0.000000 0.000000 0.000000 0.205293 0.000000 0.000000 0.000000 0.000000 0.000000 0.000000 0.000000 0.000000 0.000000 0.000000 0.000000 0.000000 0.000000 0.000000 0.000802 0.000000 0.000000 0.000000 0.002406 0.022454 0.000000 0.111468 0.077670 0.077670 0.000000 0.029126 0.077670 0.058252 0.000000 0.000000 0.294118 0.000000 0.000000 0.000000 0.000000 0.000000 0.000000 0.000000 0.000000 0.000000 0.000000 0.001604 0.000000 0.165196 0.029126 0.077670 0.000000 0.000000 0.009709 0.009709 0.009709 0.000000 0.166090 0.000000 0.000000 0.000000 0.000000 0.000000 0.000000 0.000000 0.000000 0.000000 0.000000 0.148356 0.000000 0.005613 0.009709 0.038835 0.000000 0.000000 0.067961 0.067961 0.029126 0.000000 0.221453 0.000000 0.000000 0.000000 0.000000 0.000000 0.000000 0.000000 0.000000 0.000000 0.000000 0.097033 0.000802 0.033681 0.077670 0.067961 0.009709 0.000000 0.048544 0.097087 0.019417 0.009709 0.318339 0.000000 0.000000 0.000000 0.000000 0.000000 0.000000 0.000000 0.000000 0.000000 0.000000 0.205293 0.000000 0.000000 0.000000 0.000000 0.000000 0.000000 0.000000 0.000000 0.000000 0.000000 0.000000 1
0.000000 0.025862 0.000000 0.000000 0.000000 0.000000 0.000000 0.000000 0.000000 0.000000 0.000000 0.000000 0.142720 0.000000 0.042403 0.049470 0.000000 0.000000 0.035336 0.028269 0.000000 0.132124 0.000319 0.030332 0.000000 0.000000 0.000000 0.075670 0.000319 0.000000 0.000000 0.000319 0.022989 0.000000 0.029693 0.028269 0.056537 0.021201 0.010601 0.035336 0.056537 0.014134 0.003534 0.195596 0.000000 0.046296 0.000639 0.000000 0.003193 0.000000 0.000000 0.000000 0.050128 0.000000 0.000000 0.037356 0.002554 0.017668 0.028269 0.067138 0.017668 0.003534 0.017668 0.084806 0.021201 0.247409 0.000000 0.017880 0.000958 0.000000 0.001916 0.008621 0.001916 0.000000 0.001916 0.000000 0.114304 0.000000 0.000000 0.014134 0.035336 0.028269 0.007067 0.017668 0.053004 0.028269 0.003534 0.244819 0.000000 0.000000 0.000000 0.000000 0.000000 0.000000 0.000000 0.000000 0.042146 0.000000 0.048531 0.077905 0.000000 0.024735 0.049470 0.007067 0.000000 0.014134 0.049470 0.010601 0.003534 0.170984 0.000000 0.000000 0.000000 0.000000 0.000000 0.000000 0.000000 0.000000 0.000000 0.000000 0.215517 0.000000 0.000000 0.000000 0.000000 0.000000 0.000000 0.003534 0.007067 0.003534 0.000000 0.009067 4
0.000000 0.000000 0.000000 0.000000 0.000000 0.000000 0.000000 0.000000 0.000000 0.000000 0.000000 0.000000 0.224125 0.000000 0.016393 0.005464 0.000000 0.000000 0.000000 0.000000 0.000000 0.011804 0.000000 0.000000 0.000000 0.000000 0.000000 0.000000 0.056590 0.000000 0.000000 0.043187 0.000000 0.000000 0.059568 0.005464 0.049180 0.038251 0.005464 0.010929 0.060109 0.027322 0.000000 0.158516 0.000000 0.023827 0.000000 0.000000 0.028295 0.000000 0.005212 0.000000 0.000000 0.000000 0.000000 0.000000 0.100521 0.016393 0.060109 0.016393 0.000000 0.005464 0.060109 0.010929 0.000000 0.161889 0.000000 0.052122 0.000000 0.000000 0.004468 0.000000 0.078183 0.000000 0.000000 0.020849 0.003723 0.000000 0.000000 0.005464 0.032787 0.060109 0.010929 0.021858 0.021858 0.000000 0.000000 0.158516 0.000000 0.010424 0.000000 0.000000 0.084140 0.000000 0.000000 0.000000 0.000000 0.000000 0.003723 0.012658 0.011914 0.049180 0.065574 0.032787 0.016393 0.032787 0.027322 0.076503 0.027322 0.315346 0.000000 0.002234 0.000000 0.000000 0.043931 0.000000 0.000000 0.000000 0.000000 0.000000 0.130305 0.000000 0.000000 0.005464 0.010929 0.000000 0.000000 0.005464 0.065574 0.043716 0.000000 0.193929 6
0.000000 0.014936 0.000000 0.000000 0.017070 0.000000 0.002845 0.000000 0.000000 0.000000 0.000000 0.000000 0.128734 0.021390 0.048128 0.021390 0.000000 0.016043 0.037433 0.005348 0.000000 0.149798 0.000000 0.044097 0.000000 0.001422 0.000000 0.002134 0.057610 0.000000 0.000000 0.004979 0.016358 0.000000 0.007112 0.000000 0.048128 0.106952 0.016043 0.010695 0.053476 0.069519 0.005348 0.234818 0.000000 0.002134 0.002845 0.000000 0.006401 0.000000 0.000000 0.000000 0.083215 0.000000 0.000000 0.000000 0.068279 0.016043 0.037433 0.026738 0.016043 0.000000 0.005348 0.042781 0.016043 0.151822 0.000000 0.002845 0.002845 0.000000 0.000711 0.000000 0.000000 0.000000 0.004267 0.000000 0.129445 0.000000 0.000000 0.010695 0.032086 0.005348 0.000000 0.021390 0.069519 0.016043 0.005348 0.216599 0.000000 0.000000 0.000000 0.000000 0.000000 0.000000 0.000000 0.000000 0.018492 0.000000 0.090327 0.000000 0.048364 0.032086 0.064171 0.005348 0.000000 0.016043 0.069519 0.026738 0.000000 0.244939 0.000000 0.000000 0.000000 0.000000 0.000000 0.000000 0.000000 0.000000 0.000000 0.000000 0.242532 0.000000 0.000000 0.000000 0.000000 0.000000 0.000000 0.000000 0.005348 0.000000 0.000000 0.002024 9
0.000000 0.000000 0.000000 0.000000 0.000000 0.000000 0.000000 0.000000 0.000000 0.000000 0.000000 0.000000 0.226556 0.000000 0.027523 0.009174 0.000000 0.000000 0.000000 0.000000 0.000000 0.013592 0.000000 0.000000 0.000000 0.000000 0.029876 0.000000 0.000000 0.000000 0.000000 0.000830 0.011618 0.000000 0.077178 0.009174 0.082569 0.082569 0.009174 0.082569 0.036697 0.000000 0.000000 0.264078 0.000000 0.000000 0.000000 0.000000 0.053112 0.000000 0.000000 0.000000 0.000000 0.000000 0.000000 0.000000 0.107054 0.027523 0.100917 0.009174 0.000000 0.000000 0.000000 0.000000 0.000000 0.168932 0.000000 0.000000 0.000000 0.000000 0.107054 0.000000 0.000000 0.000000 0.000000 0.000000 0.057261 0.000000 0.000000 0.000000 0.000000 0.000000 0.000000 0.091743 0.036697 0.000000 0.000000 0.159223 0.000000 0.000000 0.000000 0.000000 0.088797 0.000000 0.000000 0.000000 0.000000 0.000000 0.011618 0.022407 0.010788 0.055046 0.036697 0.000000 0.000000 0.000000 0.027523 0.100917 0.045872 0.269903 0.000000 0.000000 0.000000 0.000000 0.016598 0.000000 0.000000 0.000000 0.000000 0.000000 0.179253 0.000000 0.000000 0.000000 0.000000 0.000000 0.000000 0.018349 0.082569 0.027523 0.000000 0.124272 0
0.000000 0.000504 0.000000 0.000000 0.011599 0.000000 0.000000 0.000000 0.000000 0.000000 0.000000 0.000000 0.163893 0.027027 0.027027 0.027027 0.000000 0.016216 0.021622 0.010811 0.000000 0.100176 0.000000 0.011599 0.000000 0.000000 0.019163 0.029753 0.000000 0.000000 0.000000 0.000504 0.049420 0.000000 0.016641 0.000000 0.081081 0.091892 0.010811 0.021622 0.081081 0.070270 0.005405 0.270650 0.000000 0.000000 0.000000 0.000000 0.016641 0.000000 0.000000 0.000000 0.003530 0.000000 0.000000 0.000000 0.127080 0.037838 0.037838 0.027027 0.016216 0.005405 0.000000 0.000000 0.010811 0.200351 0.000000 0.000000 0.000000 0.000000 0.002521 0.000000 0.001009 0.000000 0.000000 0.000000 0.174987 0.000000 0.000000 0.000000 0.016216 0.005405 0.005405 0.032432 0.037838 0.016216 0.000000 0.091388 0.000000 0.000000 0.000000 0.000000 0.045890 0.000000 0.000000 0.000000 0.000000 0.000000 0.058497 0.002521 0.032779 0.021622 0.054054 0.016216 0.000000 0.000000 0.064865 0.075676 0.010811 0.328647 0.000000 0.000000 0.000000 0.000000 0.000000 0.000000 0.000000 0.000000 0.000000 0.000000 0.231467 0.000000 0.000000 0.000000 0.000000 0.000000 0.000000 0.005405 0.010811 0.000000 0.000000 0.008787 8
0.000000 0.000000 0.000000 0.000000 0.000000 0.004959 0.001063 0.000000 0.000000 0.018774 0.003188 0.000000 0.148069 0.023810 0.011905 0.011905 0.000000 0.000000 0.011905 0.000000 0.000000 0.061947 0.000000 0.000000 0.000000 0.000000 0.000000 0.001063 0.000000 0.000000 0.000000 0.000000 0.116188 0.000000 0.015586 0.000000 0.095238 0.333333 0.023810 0.023810 0.071429 0.392857 0.000000 0.302655 0.000000 0.000000 0.007793 0.000000 0.000000 0.000000 0.015586 0.000000 0.000000 0.049947 0.009919 0.000000 0.040383 0.000000 0.000000 0.000000 0.000000 0.000000 0.000000 0.000000 0.000000 0.323894 0.000000 0.000000 0.000000 0.000000 0.000000 0.000000 0.000000 0.000000 0.000000 0.000000 0.193411 0.000000 0.000000 0.000000 0.000000 0.000000 0.000000 0.000000 0.000000 0.000000 0.000000 0.000000 0.000000 0.000000 0.023025 0.000000 0.000000 0.000000 0.000000 0.001417 0.050301 0.000354 0.044988 0.032944 0.000000 0.000000 0.000000 0.000000 0.000000 0.000000 0.000000 0.000000 0.000000 0.311504 0.000000 0.000000 0.000000 0.000000 0.000000 0.000000 0.000000 0.000000 0.000000 0.000000 0.221041 0.000000 0.000000 0.000000 0.000000 0.000000 0.000000 0.000000 0.000000 0.000000 0.000000 0.000000 5
0.000000 0.000000 0.000000 0.000000 0.000000 0.000000 0.000000 0.000000 0.000000 0.000000 0.000000 0.000000 0.212928 0.004651 0.018605 0.013953 0.000000 0.000000 0.004651 0.000000 0.000000 0.038095 0.000000 0.000000 0.029151 0.000000 0.033587 0.000000 0.004436 0.000000 0.000000 0.019645 0.000000 0.000000 0.034221 0.027907 0.051163 0.046512 0.018605 0.037209 0.055814 0.041860 0.004651 0.268254 0.001901 0.000000 0.011407 0.000000 0.000000 0.000000 0.000000 0.000000 0.052598 0.000000 0.000000 0.000000 0.142586 0.018605 0.004651 0.018605 0.000000 0.009302 0.013953 0.018605 0.000000 0.049206 0.000000 0.000000 0.034854 0.000000 0.005703 0.000000 0.082383 0.000000 0.037389 0.009506 0.000000 0.000000 0.000000 0.023256 0.046512 0.023256 0.004651 0.027907 0.037209 0.013953 0.000000 0.146032 0.000634 0.000000 0.000000 0.000000 0.016477 0.000000 0.000000 0.000000 0.000000 0.000000 0.045627 0.003802 0.034854 0.027907 0.046512 0.046512 0.004651 0.004651 0.037209 0.060465 0.009302 0.355556 0.000000 0.000000 0.000000 0.000000 0.000000 0.000000 0.003169 0.000634 0.000000 0.000634 0.181876 0.000000 0.000000 0.000000 0.000000 0.060465 0.004651 0.000000 0.027907 0.079070 0.004651 0.142857 2
